%YAML:1.0
my_nn: !!opencv-ml-ann-mlp
   layer_sizes: !!opencv-matrix
      rows: 1
      cols: 4
      dt: i
      data: [ 1064, 100, 100, 10 ]
   activation_function: SIGMOID_SYM
   f_param1: 5.9999999999999998e-001
   f_param2: 1.
   min_val: -9.4999999999999996e-001
   max_val: 9.4999999999999996e-001
   min_val1: -9.7999999999999998e-001
   max_val1: 9.7999999999999998e-001
   training_params:
      train_method: BACKPROP
      dw_scale: 1.0000000000000001e-001
      moment_scale: 1.0000000000000001e-001
      term_criteria: { epsilon:9.9999999747524271e-007, iterations:1000 }
   input_scale: [ 9.6280120811811035e-003, -5.1558004694724802e-001,
       9.6280120811811035e-003, -5.1558004694724802e-001,
       9.5189811066204097e-003, -5.2592370614077766e-001,
       9.8039215686274508e-003, -5.0000000000000000e-001,
       1.0359852259946277e-002, -4.5790546988962549e-001,
       1.0788768758517264e-002, -4.3101131190276470e-001,
       1.1416665162382387e-002, -3.9787078090902617e-001,
       1.2370885790221652e-002, -3.5751859933740571e-001,
       1.2703947435020001e-002, -3.4554737023254400e-001,
       1.3071895424836602e-002, -3.3333333333333337e-001,
       1.3703069761070826e-002, -3.1448545101657543e-001,
       1.4455093740676191e-002, -2.9488391230979427e-001,
       1.4739314026097947e-002, -2.8815358921021489e-001,
       1.5043446155516602e-002, -2.8131244310816045e-001,
       1.5043446155516602e-002, -2.8131244310816045e-001,
       1.4188769156600639e-002, -3.0151134457776357e-001,
       1.2703947435020001e-002, -3.4554737023254400e-001,
       1.1790673961445817e-002, -3.8083876895469987e-001,
       1.0522672835293128e-002, -4.4721359549995793e-001,
       9.5189811066204097e-003, -5.2592370614077766e-001,
       9.2264399342756806e-003, -5.5681565003353739e-001,
       9.1391691541735948e-003, -5.6708544601647148e-001,
       1.0359852259946277e-002, -4.5790546988962549e-001,
       1.1926206862652857e-002, -3.7507920583043236e-001,
       1.3703069761070826e-002, -3.1448545101657543e-001,
       1.4455093740676191e-002, -2.9488391230979427e-001,
       1.7452671444027255e-002, -2.3735633163877068e-001,
       1.6100935634240001e-002, -2.6003011049297597e-001,
       3.9413247657224003e-002, -1.0050378152592120e-001,
       3.9413247657224003e-002, -1.0050378152592120e-001,
       4.8190112971708263e-002, -8.1923192051904042e-002, 1., 0., 1., 0.,
       1., 0., 1., 0., 1., 0., 1., 0., 1., 0., 1., 0., 1., 0., 1., 0.,
       1., 0., 1., 0., 1., 0., 1., 0., 1., 0., 1., 0., 1., 0., 1., 0.,
       1., 0., 6.8037050819557673e-002, -5.7831493196624020e-002,
       4.8190112971708263e-002, -8.1923192051904042e-002,
       4.8190112971708263e-002, -8.1923192051904042e-002,
       4.8190112971708263e-002, -8.1923192051904042e-002,
       6.8037050819557673e-002, -5.7831493196624020e-002,
       4.8190112971708263e-002, -8.1923192051904042e-002,
       4.8190112971708263e-002, -8.1923192051904042e-002,
       6.8037050819557673e-002, -5.7831493196624020e-002, 1., 0., 1., 0.,
       1., 0., 1., 0., 1., 0., 1., 0., 1., 0., 1., 0., 1., 0., 1., 0.,
       1., 0., 1., 0., 1., 0., 1., 0., 1., 0., 1., 0., 1., 0., 1., 0.,
       1., 0., 1., 0., 1., 0., 6.8037050819557673e-002,
       -5.7831493196624020e-002, 6.8037050819557673e-002,
       -5.7831493196624020e-002, 6.8037050819557673e-002,
       -5.7831493196624020e-002, 1., 0., 1., 0., 6.8037050819557673e-002,
       -5.7831493196624020e-002, 1., 0., 1., 0., 1., 0., 1., 0., 1., 0.,
       1., 0., 1., 0., 6.8037050819557673e-002, -5.7831493196624020e-002,
       6.8037050819557673e-002, -5.7831493196624020e-002,
       6.8037050819557673e-002, -5.7831493196624020e-002,
       6.8037050819557673e-002, -5.7831493196624020e-002,
       6.8037050819557673e-002, -5.7831493196624020e-002,
       6.8037050819557673e-002, -5.7831493196624020e-002,
       6.8037050819557673e-002, -5.7831493196624020e-002,
       4.8190112971708263e-002, -8.1923192051904042e-002,
       6.8037050819557673e-002, -5.7831493196624020e-002,
       6.8037050819557673e-002, -5.7831493196624020e-002,
       6.8037050819557673e-002, -5.7831493196624020e-002,
       6.8037050819557673e-002, -5.7831493196624020e-002, 1., 0., 1., 0.,
       1., 0., 6.8037050819557673e-002, -5.7831493196624020e-002,
       6.8037050819557673e-002, -5.7831493196624020e-002,
       6.8037050819557673e-002, -5.7831493196624020e-002, 1., 0.,
       6.8037050819557673e-002, -5.7831493196624020e-002, 1., 0., 1., 0.,
       6.8037050819557673e-002, -5.7831493196624020e-002,
       6.8037050819557673e-002, -5.7831493196624020e-002,
       6.8037050819557673e-002, -5.7831493196624020e-002,
       2.0865836995000945e-002, -1.9509557590325882e-001,
       1.2533387688246923e-002, -3.5156152465532620e-001,
       9.8039215686274508e-003, -5.0000000000000000e-001,
       8.7992549528691875e-003, -6.1330807021498235e-001,
       8.2590358042261541e-003, -7.2307858465999975e-001,
       8.1699346405228763e-003, -7.5000000000000000e-001,
       8.0657784728360108e-003, -7.8842984571972008e-001,
       8.0932144688217952e-003, -7.7735324973033337e-001,
       7.9369960147776496e-003, -8.5679871979524724e-001,
       7.8727595698104402e-003, -9.1678285190442577e-001,
       7.8433115526509046e-003, -9.9335540814323708e-001,
       7.8459274140990458e-003, -1.0270318985055651e+000,
       7.9939582112506496e-003, -8.2217860202712922e-001,
       8.5307503977886737e-003, -6.5985354326895385e-001,
       1.0359852259946277e-002, -4.5790546988962549e-001,
       1.5043446155516602e-002, -2.8131244310816045e-001,
       2.5977553272089372e-002, -1.5456644196893177e-001,
       6.8037050819557673e-002, -5.7831493196624020e-002,
       6.8037050819557673e-002, -5.7831493196624020e-002,
       6.8037050819557673e-002, -5.7831493196624020e-002, 1., 0., 1., 0.,
       2.8011204481792715e-002, -1.4285714285714282e-001, 1., 0., 1., 0.,
       6.8037050819557673e-002, -5.7831493196624020e-002,
       6.8037050819557673e-002, -5.7831493196624020e-002,
       3.0632684936664437e-002, -1.3018891098082386e-001,
       1.0207435417555952e-002, -4.6852128566581819e-001,
       8.6423459357109784e-003, -6.3910148194582683e-001,
       7.9454990046383105e-003, -8.5096294339676304e-001,
       7.8939981127027232e-003, -1.1205530320981514e+000,
       8.1076153885289905e-003, -1.2955969390869329e+000,
       8.4791911777335402e-003, -1.4919136877222163e+000,
       8.5575643229800942e-003, -1.5275252316519468e+000,
       9.5727140427076373e-003, -1.9202864369671520e+000,
       1.1536243243422589e-002, -2.5495097567963922e+000,
       1.5043446155516607e-002, -3.5547663265485743e+000,
       1.6961466378627263e-002, -4.0800807373787880e+000,
       1.9260539586075879e-002, -4.6986086320232108e+000,
       1.7452671444027252e-002, -4.2130748865881786e+000,
       1.0982588894337331e-002, -2.3804761428476167e+000,
       8.4067933893386699e-003, -1.4577379737113254e+000,
       7.9454990046383105e-003, -8.5096294339676304e-001,
       9.2718871322247133e-003, -5.5167728436737040e-001,
       1.4739314026097947e-002, -2.8815358921021489e-001,
       4.8190112971708263e-002, -8.1923192051904042e-002,
       6.8037050819557673e-002, -5.7831493196624020e-002,
       4.8190112971708263e-002, -8.1923192051904042e-002,
       6.8037050819557673e-002, -5.7831493196624020e-002,
       2.5977553272089372e-002, -1.5456644196893177e-001, 1., 0., 1., 0.,
       4.8190112971708263e-002, -8.1923192051904042e-002,
       4.8190112971708263e-002, -8.1923192051904042e-002,
       1.3938598834765130e-002, -3.0804303424830942e-001,
       8.8679807228754012e-003, -6.0302268915552726e-001,
       7.8881403841891146e-003, -8.9845918975914019e-001,
       8.0048684404679018e-003, -1.2247448713915889e+000,
       8.5046313524447109e-003, -1.5036188231122249e+000,
       8.7026673112389312e-003, -1.5904124511289146e+000,
       8.8679807228754012e-003, -1.6583123951777001e+000,
       1.0696955403725112e-002, -2.2912878474779186e+000,
       1.7993390891808767e-002, -4.3588989435406740e+000,
       2.1846510373770806e-002, -5.3851648071345037e+000,
       2.8011204481792736e-002, -7.0000000000000044e+000,
       3.9413247657223850e-002, -9.9498743710661604e+000, 1., -255., 1.,
       -255., 1.9260539586075879e-002, -4.6986086320232108e+000,
       1.2370885790221652e-002, -2.7970572771691153e+000,
       8.8679807228754012e-003, -1.6583123951777001e+000,
       7.8683564108345885e-003, -9.2295820699089726e-001,
       9.8661234932006566e-003, -4.9478609318401290e-001,
       2.2988642421982321e-002, -1.7586311452816475e-001,
       4.8190112971708263e-002, -8.1923192051904042e-002,
       4.8190112971708263e-002, -8.1923192051904042e-002,
       6.8037050819557673e-002, -5.7831493196624020e-002,
       2.2988642421982321e-002, -1.7586311452816475e-001, 1., 0., 1., 0.,
       6.8037050819557673e-002, -5.7831493196624020e-002,
       6.8037050819557673e-002, -5.7831493196624020e-002,
       1.3270809955222377e-002, -3.2712546539623155e-001,
       8.1378172219538185e-003, -7.6088591025268204e-001,
       8.0048684404679018e-003, -1.2247448713915889e+000,
       8.5575643229800942e-003, -1.5275252316519468e+000,
       8.7340275134779218e-003, -1.6035674514745464e+000,
       9.1391691541735914e-003, -1.7634026882977945e+000,
       1.0359852259946283e-002, -2.1838568563966763e+000,
       1.6512782766010169e-002, -3.9581140290126373e+000,
       2.1846510373770806e-002, -5.3851648071345037e+000,
       2.2988642421982314e-002, -5.6862407030773250e+000,
       3.4190481983476212e-002, -8.6023252670426142e+000,
       6.8037050819558229e-002, -1.7291616465790725e+001, 1., -255., 1.,
       -255., 1.8592339448265119e-002, -4.5197977198732504e+000,
       1.3270809955222373e-002, -3.0569310731854737e+000,
       1.0788768758517265e-002, -2.3201247215191381e+000,
       8.4544145165918339e-003, -1.4803679818552300e+000,
       9.2718871322247133e-003, -5.5167728436737040e-001,
       1.7452671444027255e-002, -2.3735633163877068e-001,
       4.8190112971708263e-002, -8.1923192051904042e-002,
       4.8190112971708263e-002, -8.1923192051904042e-002,
       4.8190112971708263e-002, -8.1923192051904042e-002,
       2.0012171101169755e-002, -2.0412414523193148e-001, 1., 0., 1., 0.,
       6.8037050819557673e-002, -5.7831493196624020e-002,
       6.8037050819557673e-002, -5.7831493196624020e-002,
       1.5721249524260256e-002, -2.6726124191242434e-001,
       7.9636817804982704e-003, -8.3937205966451778e-001,
       8.5307503977886754e-003, -1.5154878081671583e+000,
       8.9404069134814326e-003, -1.6870547845739463e+000,
       9.6849359074260323e-003, -1.9592625340722865e+000,
       1.0282403985213028e-002, -2.1587907166954752e+000,
       1.2067793233267914e-002, -2.7080128015453200e+000,
       2.2988642421982314e-002, -5.6862407030773250e+000,
       1.8592339448265119e-002, -4.5197977198732504e+000,
       1.7452671444027252e-002, -4.2130748865881786e+000,
       1.6512782766010169e-002, -3.9581140290126373e+000,
       2.0865836995000945e-002, -5.1256928578219823e+000,
       3.9413247657223850e-002, -9.9498743710661604e+000,
       4.8190112971708637e-002, -1.2206555615733798e+001,
       1.6512782766010169e-002, -3.9581140290126373e+000,
       1.1536243243422589e-002, -2.5495097567963922e+000,
       1.0696955403725112e-002, -2.2912878474779186e+000,
       9.6280120811811018e-003, -1.9395630337539329e+000,
       8.4067933893386682e-003, -6.8599434057003528e-001,
       1.7452671444027255e-002, -2.3735633163877068e-001,
       4.8190112971708263e-002, -8.1923192051904042e-002,
       4.8190112971708263e-002, -8.1923192051904042e-002,
       4.8190112971708263e-002, -8.1923192051904042e-002,
       1.7993390891808767e-002, -2.2941573387056177e-001,
       6.8037050819557673e-002, -5.7831493196624020e-002,
       6.8037050819557673e-002, -5.7831493196624020e-002,
       6.8037050819557673e-002, -5.7831493196624020e-002,
       6.8037050819557673e-002, -5.7831493196624020e-002,
       2.4341349664775531e-002, -1.6552117772047362e-001,
       7.9939582112506496e-003, -8.2217860202712922e-001,
       8.5575643229800942e-003, -1.5275252316519468e+000,
       9.6280120811811018e-003, -1.9395630337539329e+000,
       9.6280120811811018e-003, -1.9395630337539329e+000,
       9.2718871322247133e-003, -1.8126539343499315e+000,
       1.0883918977684244e-002, -2.3498381072820282e+000,
       1.0064498688664044e-002, -2.0873770280289228e+000,
       8.0527305616675537e-003, -1.2594470598448055e+000,
       7.8474981878243547e-003, -1.0339078862458588e+000,
       7.8474981878243547e-003, -1.0339078862458588e+000,
       8.0932144688217952e-003, -1.2864164398192242e+000,
       1.0522672835293128e-002, -2.2360679774997898e+000,
       1.3071895424836602e-002, -3., 1.0608309295761396e-002,
       -2.2632827882506938e+000, 9.9963282732270942e-003,
       -2.0647416048350564e+000, 9.8661234932006566e-003,
       -2.0210753975821545e+000, 9.0167549924259679e-003,
       -1.7167901505579044e+000, 8.1699346405228763e-003,
       -7.5000000000000000e-001, 2.4341349664775531e-002,
       -1.6552117772047362e-001, 4.8190112971708263e-002,
       -8.1923192051904042e-002, 4.8190112971708263e-002,
       -8.1923192051904042e-002, 4.8190112971708263e-002,
       -8.1923192051904042e-002, 1.8592339448265119e-002,
       -2.2124883943435492e-001, 4.8190112971708263e-002,
       -8.1923192051904042e-002, 6.8037050819557673e-002,
       -5.7831493196624020e-002, 6.8037050819557673e-002,
       -5.7831493196624020e-002, 6.8037050819557673e-002,
       -5.7831493196624020e-002, 2.4341349664775531e-002,
       -1.6552117772047362e-001, 8.2590358042261541e-003,
       -7.2307858465999975e-001, 8.0161956084075850e-003,
       -1.2332916943535068e+000, 8.1076153885289905e-003,
       -1.2955969390869329e+000, 8.0792710140228340e-003,
       -1.2773327473170100e+000, 8.2983901461666579e-003,
       -1.4036726932240902e+000, 8.5307503977886754e-003,
       -1.5154878081671583e+000, 7.9068240421813381e-003,
       -8.8042485709689200e-001, 8.5307503977886737e-003,
       -6.5985354326895385e-001, 8.5850898212587630e-003,
       -6.4946204497822546e-001, 8.1224806013228765e-003,
       -7.6635604473481334e-001, 8.0527305616675520e-003,
       -7.9399923338042055e-001, 7.8543157922048735e-003,
       -9.4801591611912828e-001, 8.5575643229800942e-003,
       -1.5275252316519468e+000, 9.0167549924259679e-003,
       -1.7167901505579044e+000, 9.0167549924259679e-003,
       -1.7167901505579044e+000, 8.9404069134814326e-003,
       -1.6870547845739463e+000, 8.1536326619717769e-003,
       -1.3237422626711179e+000, 8.0401212559287217e-003,
       -7.9959005890211143e-001, 2.5977553272089372e-002,
       -1.5456644196893177e-001, 4.8190112971708263e-002,
       -8.1923192051904042e-002, 4.8190112971708263e-002,
       -8.1923192051904042e-002, 4.8190112971708263e-002,
       -8.1923192051904042e-002, 1.8592339448265119e-002,
       -2.2124883943435492e-001, 4.8190112971708263e-002,
       -8.1923192051904042e-002, 6.8037050819557673e-002,
       -5.7831493196624020e-002, 6.8037050819557673e-002,
       -5.7831493196624020e-002, 4.8190112971708263e-002,
       -8.1923192051904042e-002, 2.0865836995000945e-002,
       -1.9509557590325882e-001, 8.3399884325316351e-003,
       -7.0181002659753711e-001, 7.9068240421813398e-003,
       -1.1358152736593494e+000, 7.9636817804982704e-003,
       -1.1913667943625412e+000, 7.9636817804982704e-003,
       -1.1913667943625412e+000, 8.2983901461666579e-003,
       -1.4036726932240902e+000, 7.9834600759705054e-003,
       -1.2078975094943376e+000, 8.2590358042261541e-003,
       -7.2307858465999975e-001, 8.7340275134779218e-003,
       -6.2360956446232363e-001, 8.6721136745779668e-003,
       -6.3393150961164935e-001, 8.2040306968172143e-003,
       -7.3918316578323096e-001, 8.3399884325316351e-003,
       -7.0181002659753711e-001, 8.4067933893386682e-003,
       -6.8599434057003528e-001, 7.8516915344411901e-003,
       -9.5437310601132663e-001, 8.7340275134779218e-003,
       -1.6035674514745464e+000, 8.7340275134779218e-003,
       -1.6035674514745464e+000, 8.2590358042261541e-003,
       -1.3829755454176693e+000, 8.0048684404679018e-003,
       -1.2247448713915889e+000, 8.1224806013228765e-003,
       -7.6635604473481334e-001, 2.1846510373770806e-002,
       -1.8569533817705186e-001, 6.8037050819557673e-002,
       -5.7831493196624020e-002, 4.8190112971708263e-002,
       -8.1923192051904042e-002, 4.8190112971708263e-002,
       -8.1923192051904042e-002, 2.0012171101169755e-002,
       -2.0412414523193148e-001, 4.8190112971708263e-002,
       -8.1923192051904042e-002, 6.8037050819557673e-002,
       -5.7831493196624020e-002, 6.8037050819557673e-002,
       -5.7831493196624020e-002, 4.8190112971708263e-002,
       -8.1923192051904042e-002, 1.7452671444027255e-002,
       -2.3735633163877068e-001, 8.2983901461666579e-003,
       -7.1241679404840752e-001, 7.8543157922048735e-003,
       -1.0548346108931146e+000, 7.8775232941997089e-003,
       -1.0981267472114395e+000, 7.9636817804982704e-003,
       -1.1913667943625412e+000, 8.3839212086167583e-003,
       -1.4466456045468217e+000, 7.8683564108345868e-003,
       -1.0834726777719226e+000, 8.2401737453018497e-003,
       -7.2843135908468359e-001, 8.7662158725502447e-003,
       -6.1845652980841970e-001, 8.2983901461666579e-003,
       -7.1241679404840752e-001, 8.2218418566424971e-003,
       -7.3379938570534287e-001, 8.4302866341178662e-003,
       -6.8074564570501772e-001, 8.4544145165918357e-003,
       -6.7550771987568770e-001, 7.9211486592821265e-003,
       -8.6855395049028516e-001, 8.3189033080770299e-003,
       -1.4142135623730951e+000, 8.0932144688217952e-003,
       -1.2864164398192242e+000, 8.0657784728360108e-003,
       -1.2683436648534627e+000, 7.9369960147776496e-003,
       -1.1671352639730534e+000, 8.2784378611911579e-003,
       -7.1774056256527341e-001, 1.9260539586075903e-002,
       -2.1282896242613875e-001, 6.8037050819557673e-002,
       -5.7831493196624020e-002, 4.8190112971708263e-002,
       -8.1923192051904042e-002, 4.8190112971708263e-002,
       -8.1923192051904042e-002, 2.0012171101169755e-002,
       -2.0412414523193148e-001, 4.8190112971708263e-002,
       -8.1923192051904042e-002, 6.8037050819557673e-002,
       -5.7831493196624020e-002, 6.8037050819557673e-002,
       -5.7831493196624020e-002, 4.8190112971708263e-002,
       -8.1923192051904042e-002, 1.6100935634240001e-002,
       -2.6003011049297597e-001, 8.2784378611911579e-003,
       -7.1774056256527341e-001, 7.8459274140990458e-003,
       -1.0270318985055651e+000, 7.8881403841891146e-003,
       -1.1130166082090840e+000, 8.0401212559287234e-003,
       -1.2506408613597131e+000, 8.2784378611911597e-003,
       -1.3932610920384723e+000, 7.8438345156274254e-003,
       -1.0134234194190632e+000, 8.1076153885289888e-003,
       -7.7184498498795973e-001, 8.2590358042261541e-003,
       -7.2307858465999975e-001, 8.5046313524447092e-003,
       -6.6506217176117632e-001, 8.3616570605881436e-003,
       -6.9652603314699235e-001, 8.5046313524447092e-003,
       -6.6506217176117632e-001, 8.3839212086167583e-003,
       -6.9125430365045171e-001, 7.8775232941997089e-003,
       -9.1064169280948626e-001, 7.9733694055122029e-003,
       -1.1995934270593109e+000, 8.0279447817963104e-003,
       -1.2419230577438891e+000, 8.0279447817963104e-003,
       -1.2419230577438891e+000, 7.8606247621301282e-003,
       -1.0690449676496974e+000, 8.3616570605881436e-003,
       -6.9652603314699235e-001, 1.6512782766010176e-002,
       -2.5264557631995571e-001, 6.8037050819557673e-002,
       -5.7831493196624020e-002, 4.8190112971708263e-002,
       -8.1923192051904042e-002, 4.8190112971708263e-002,
       -8.1923192051904042e-002, 1.9260539586075903e-002,
       -2.1282896242613875e-001, 4.8190112971708263e-002,
       -8.1923192051904042e-002, 6.8037050819557673e-002,
       -5.7831493196624020e-002, 6.8037050819557673e-002,
       -5.7831493196624020e-002, 4.8190112971708263e-002,
       -8.1923192051904042e-002, 1.5369839248423934e-002,
       -2.7435163058436723e-001, 8.4302866341178662e-003,
       -6.8074564570501772e-001, 7.9211486592821265e-003,
       -8.6855395049028516e-001, 7.8643120227951738e-003,
       -1.0762311003195195e+000, 8.0792710140228340e-003,
       -1.2773327473170100e+000, 7.9834600759705054e-003,
       -1.2078975094943376e+000, 7.8447063530980941e-003,
       -9.8019605881960692e-001, 7.8881403841891146e-003,
       -8.9845918975914019e-001, 7.9543929856801549e-003,
       -8.4515425472851646e-001, 8.0279447817963121e-003,
       -8.0520286161417010e-001, 7.9543929856801549e-003,
       -8.4515425472851646e-001, 7.9454990046383105e-003,
       -8.5096294339676304e-001, 7.8727595698104402e-003,
       -9.1678285190442577e-001, 7.8516915344411901e-003,
       -1.0478082352711768e+000, 7.9454990046383123e-003,
       -1.1751393027860064e+000, 8.0048684404679018e-003,
       -1.2247448713915889e+000, 7.9543929856801549e-003,
       -1.1832159566199230e+000, 7.8939981127027232e-003,
       -8.9241648664104278e-001, 8.4791911777335402e-003,
       -6.7028006259983630e-001, 1.6100935634240001e-002,
       -2.6003011049297597e-001, 3.9413247657224003e-002,
       -1.0050378152592120e-001, 4.8190112971708263e-002,
       -8.1923192051904042e-002, 4.8190112971708263e-002,
       -8.1923192051904042e-002, 1.9260539586075903e-002,
       -2.1282896242613875e-001, 1., 0., 6.8037050819557673e-002,
       -5.7831493196624020e-002, 6.8037050819557673e-002,
       -5.7831493196624020e-002, 4.8190112971708263e-002,
       -8.1923192051904042e-002, 1.4739314026097947e-002,
       -2.8815358921021489e-001, 8.5046313524447092e-003,
       -6.6506217176117632e-001, 8.0161956084075867e-003,
       -8.1083818579042743e-001, 7.8433115526509046e-003,
       -9.9335540814323708e-001, 7.9369960147776496e-003,
       -1.1671352639730534e+000, 8.2040306968172143e-003,
       -1.3528446619051586e+000, 7.9068240421813398e-003,
       -1.1358152736593494e+000, 7.8543157922048735e-003,
       -9.4801591611912828e-001, 7.8543157922048735e-003,
       -9.4801591611912828e-001, 7.8433115526509046e-003,
       -1.0066890377827435e+000, 7.8543157922048735e-003,
       -9.4801591611912828e-001, 7.8939981127027232e-003,
       -1.1205530320981514e+000, 8.1699346405228763e-003,
       -1.3333333333333333e+000, 8.3839212086167583e-003,
       -1.4466456045468217e+000, 8.8331683450913190e-003,
       -1.6442942874387492e+000, 8.5046313524447109e-003,
       -1.5036188231122249e+000, 7.8606247621301282e-003,
       -1.0690449676496974e+000, 7.9543929856801549e-003,
       -8.4515425472851646e-001, 8.7026673112389312e-003,
       -6.2876771323701275e-001, 1.5369839248423934e-002,
       -2.7435163058436723e-001, 4.8190112971708263e-002,
       -8.1923192051904042e-002, 4.8190112971708263e-002,
       -8.1923192051904042e-002, 4.8190112971708263e-002,
       -8.1923192051904042e-002, 2.0012171101169755e-002,
       -2.0412414523193148e-001, 1., 0., 6.8037050819557673e-002,
       -5.7831493196624020e-002, 6.8037050819557673e-002,
       -5.7831493196624020e-002, 6.8037050819557673e-002,
       -5.7831493196624020e-002, 1.7452671444027255e-002,
       -2.3735633163877068e-001, 8.5307503977886737e-003,
       -6.5985354326895385e-001, 7.9834600759705054e-003,
       -8.2788480987814139e-001, 7.8447063530980941e-003,
       -1.0202040612204073e+000, 8.0401212559287234e-003,
       -1.2506408613597131e+000, 8.3189033080770299e-003,
       -1.4142135623730951e+000, 8.0657784728360108e-003,
       -1.2683436648534627e+000, 7.8447063530980941e-003,
       -1.0202040612204073e+000, 7.8881403841891146e-003,
       -1.1130166082090840e+000, 7.8572931343221675e-003,
       -1.0619131671036410e+000, 7.9002251375037292e-003,
       -1.1281521496355327e+000, 8.3189033080770299e-003,
       -1.4142135623730951e+000, 8.4067933893386699e-003,
       -1.4577379737113254e+000, 8.8679807228754012e-003,
       -1.6583123951777001e+000, 1.1301772896161475e-002,
       -2.4784787961282118e+000, 9.2264399342756823e-003,
       -1.7959265332067615e+000, 8.0932144688217952e-003,
       -1.2864164398192242e+000, 7.9288803826057658e-003,
       -8.6266218562750729e-001, 9.1391691541735948e-003,
       -5.6708544601647148e-001, 1.6512782766010176e-002,
       -2.5264557631995571e-001, 4.8190112971708263e-002,
       -8.1923192051904042e-002, 4.8190112971708263e-002,
       -8.1923192051904042e-002, 4.8190112971708263e-002,
       -8.1923192051904042e-002, 2.0865836995000945e-002,
       -1.9509557590325882e-001, 1., 0., 6.8037050819557673e-002,
       -5.7831493196624020e-002, 6.8037050819557673e-002,
       -5.7831493196624020e-002, 6.8037050819557673e-002,
       -5.7831493196624020e-002, 2.0865836995000945e-002,
       -1.9509557590325882e-001, 8.7340275134779218e-003,
       -6.2360956446232363e-001, 7.9834600759705054e-003,
       -8.2788480987814139e-001, 7.8543157922048735e-003,
       -1.0548346108931146e+000, 8.1076153885289905e-003,
       -1.2955969390869329e+000, 8.3616570605881419e-003,
       -1.4356965173029839e+000, 8.1224806013228765e-003,
       -1.3048765086025202e+000, 8.1699346405228763e-003,
       -1.3333333333333333e+000, 7.9543929856801549e-003,
       -1.1832159566199230e+000, 7.9733694055122029e-003,
       -1.1995934270593109e+000, 8.0932144688217952e-003,
       -1.2864164398192242e+000, 8.5046313524447109e-003,
       -1.5036188231122249e+000, 8.6423459357109784e-003,
       -1.5646967316604727e+000, 9.6849359074260323e-003,
       -1.9592625340722865e+000, 1.5369839248423939e-002,
       -3.6449573777637374e+000, 1.0608309295761396e-002,
       -2.2632827882506938e+000, 8.4544145165918339e-003,
       -1.4803679818552300e+000, 7.8459274140990458e-003,
       -1.0270318985055651e+000, 9.5189811066204097e-003,
       -5.2592370614077766e-001, 1.6961466378627249e-002,
       -2.4509318917116374e-001, 4.8190112971708263e-002,
       -8.1923192051904042e-002, 4.8190112971708263e-002,
       -8.1923192051904042e-002, 3.9413247657224003e-002,
       -1.0050378152592120e-001, 2.0012171101169755e-002,
       -2.0412414523193148e-001, 1., 0., 6.8037050819557673e-002,
       -5.7831493196624020e-002, 6.8037050819557673e-002,
       -5.7831493196624020e-002, 6.8037050819557673e-002,
       -5.7831493196624020e-002, 2.1846510373770806e-002,
       -1.8569533817705186e-001, 9.1822138390362153e-003,
       -5.6195148694901642e-001, 8.1224806013228765e-003,
       -7.6635604473481334e-001, 7.8459274140990458e-003,
       -1.0270318985055651e+000, 7.9137975764272048e-003,
       -1.1435437497937311e+000, 8.0657784728360108e-003,
       -1.2683436648534627e+000, 8.0161956084075850e-003,
       -1.2332916943535068e+000, 8.3839212086167583e-003,
       -1.4466456045468217e+000, 8.2040306968172143e-003,
       -1.3528446619051586e+000, 8.0048684404679018e-003,
       -1.2247448713915889e+000, 8.1378172219538185e-003,
       -1.3142574813455417e+000, 8.7340275134779218e-003,
       -1.6035674514745464e+000, 9.8661234932006566e-003,
       -2.0210753975821545e+000, 1.2703947435020006e-002,
       -2.8939592256975577e+000, 1.3480860250414867e-002,
       -3.1167748898959169e+000, 1.2533387688246921e-002,
       -2.8444523358476386e+000, 1.0522672835293128e-002,
       -2.2360679774997898e+000, 7.8643120227951738e-003,
       -1.0762311003195195e+000, 8.9037179036159410e-003,
       -5.9788465722781048e-001, 2.4341349664775531e-002,
       -1.6552117772047362e-001, 4.8190112971708263e-002,
       -8.1923192051904042e-002, 4.8190112971708263e-002,
       -8.1923192051904042e-002, 3.4190481983476254e-002,
       -1.1624763874381926e-001, 1.8592339448265119e-002,
       -2.2124883943435492e-001, 1., 0., 6.8037050819557673e-002,
       -5.7831493196624020e-002, 6.8037050819557673e-002,
       -5.7831493196624020e-002, 6.8037050819557673e-002,
       -5.7831493196624020e-002, 2.2988642421982321e-002,
       -1.7586311452816475e-001, 1.0134835111857601e-002,
       -4.7380354147934284e-001, 7.9137975764272048e-003,
       -8.7447463219520616e-001, 7.8431372549019607e-003, -1.,
       7.8438345156274254e-003, -1.0134234194190632e+000,
       7.8826495314448016e-003, -1.1055415967851334e+000,
       8.3616570605881419e-003, -1.4356965173029839e+000,
       8.1076153885289905e-003, -1.2955969390869329e+000,
       7.9068240421813398e-003, -1.1358152736593494e+000,
       7.8727595698104419e-003, -1.0907708383972368e+000,
       7.9636817804982704e-003, -1.1913667943625412e+000,
       8.5046313524447109e-003, -1.5036188231122249e+000,
       1.0282403985213028e-002, -2.1587907166954752e+000,
       1.0883918977684244e-002, -2.3498381072820282e+000,
       1.2703947435020006e-002, -2.8939592256975577e+000,
       1.2215861921203882e-002, -2.7516228977511745e+000,
       9.6280120811811018e-003, -1.9395630337539329e+000,
       8.0657784728360108e-003, -1.2683436648534627e+000,
       8.5575643229800942e-003, -6.5465367070797720e-001,
       2.8011204481792715e-002, -1.4285714285714282e-001,
       4.8190112971708263e-002, -8.1923192051904042e-002,
       4.8190112971708263e-002, -8.1923192051904042e-002,
       3.4190481983476254e-002, -1.1624763874381926e-001,
       1.7993390891808767e-002, -2.2941573387056177e-001,
       2.0012171101169755e-002, -2.0412414523193148e-001,
       6.8037050819557673e-002, -5.7831493196624020e-002,
       6.8037050819557673e-002, -5.7831493196624020e-002,
       6.8037050819557673e-002, -5.7831493196624020e-002,
       2.0865836995000945e-002, -1.9509557590325882e-001,
       9.8039215686274508e-003, -5.0000000000000000e-001,
       7.9137975764272048e-003, -8.7447463219520616e-001,
       7.8433115526509046e-003, -1.0066890377827435e+000,
       7.8775232941997089e-003, -1.0981267472114395e+000,
       8.0792710140228340e-003, -1.2773327473170100e+000,
       8.0657784728360108e-003, -1.2683436648534627e+000,
       7.8447063530980941e-003, -9.8019605881960692e-001,
       8.0048684404679018e-003, -8.1649658092772603e-001,
       8.1536326619717769e-003, -7.5543406613168518e-001,
       7.9834600759705054e-003, -8.2788480987814139e-001,
       7.8474981878243547e-003, -1.0339078862458588e+000,
       8.9037179036159392e-003, -1.6725634081942542e+000,
       9.6280120811811018e-003, -1.9395630337539329e+000,
       1.1536243243422589e-002, -2.5495097567963922e+000,
       9.9302319880776382e-003, -2.0426487199475702e+000,
       9.5189811066204097e-003, -1.9014164760474268e+000,
       8.4067933893386699e-003, -1.4577379737113254e+000,
       8.1378172219538185e-003, -7.6088591025268204e-001,
       2.4341349664775531e-002, -1.6552117772047362e-001,
       4.8190112971708263e-002, -8.1923192051904042e-002,
       4.8190112971708263e-002, -8.1923192051904042e-002,
       2.8011204481792715e-002, -1.4285714285714282e-001,
       1.7993390891808767e-002, -2.2941573387056177e-001,
       1.1536243243422589e-002, -3.9223227027636803e-001,
       3.9413247657224003e-002, -1.0050378152592120e-001,
       6.8037050819557673e-002, -5.7831493196624020e-002,
       6.8037050819557673e-002, -5.7831493196624020e-002,
       2.2988642421982321e-002, -1.7586311452816475e-001,
       8.6721136745779668e-003, -6.3393150961164935e-001,
       8.0279447817963121e-003, -8.0520286161417010e-001,
       7.8572931343221675e-003, -9.4169658214851171e-001,
       7.9834600759705054e-003, -1.2078975094943376e+000,
       8.2218418566424971e-003, -1.3627702877384940e+000,
       7.9068240421813398e-003, -1.1358152736593494e+000,
       8.0527305616675520e-003, -7.9399923338042055e-001,
       8.4067933893386682e-003, -6.8599434057003528e-001,
       8.4302866341178662e-003, -6.8074564570501772e-001,
       8.1699346405228763e-003, -7.5000000000000000e-001,
       8.0048684404679018e-003, -8.1649658092772603e-001,
       7.8572931343221675e-003, -9.4169658214851171e-001,
       8.2040306968172143e-003, -1.3528446619051586e+000,
       9.3185971867011247e-003, -1.8297065576087659e+000,
       9.5189811066204097e-003, -1.9014164760474268e+000,
       9.6849359074260323e-003, -1.9592625340722865e+000,
       8.7340275134779218e-003, -1.6035674514745464e+000,
       8.0048684404679018e-003, -8.1649658092772603e-001,
       2.1846510373770806e-002, -1.8569533817705186e-001,
       4.8190112971708263e-002, -8.1923192051904042e-002,
       4.8190112971708263e-002, -8.1923192051904042e-002,
       2.8011204481792715e-002, -1.4285714285714282e-001,
       1.6961466378627249e-002, -2.4509318917116374e-001,
       9.9963282732270925e-003, -4.8432210483785265e-001,
       3.4190481983476254e-002, -1.1624763874381926e-001,
       6.8037050819557673e-002, -5.7831493196624020e-002,
       6.8037050819557673e-002, -5.7831493196624020e-002,
       2.0865836995000945e-002, -1.9509557590325882e-001,
       8.2401737453018497e-003, -7.2843135908468359e-001,
       8.0279447817963121e-003, -8.0520286161417010e-001,
       7.8459274140990441e-003, -9.7367959208969135e-001,
       7.8433115526509046e-003, -1.0066890377827435e+000,
       8.0527305616675537e-003, -1.2594470598448055e+000,
       7.8474981878243547e-003, -1.0339078862458588e+000,
       8.2040306968172143e-003, -7.3918316578323096e-001,
       8.3616570605881436e-003, -6.9652603314699235e-001,
       8.4302866341178662e-003, -6.8074564570501772e-001,
       8.1536326619717769e-003, -7.5543406613168518e-001,
       8.0048684404679018e-003, -8.1649658092772603e-001,
       8.2784378611911579e-003, -7.1774056256527341e-001,
       7.8543157922048735e-003, -9.4801591611912828e-001,
       8.9037179036159392e-003, -1.6725634081942542e+000,
       9.4159840120561413e-003, -1.8648356335877190e+000,
       9.5727140427076373e-003, -1.9202864369671520e+000,
       8.5046313524447109e-003, -1.5036188231122249e+000,
       7.8474981878243547e-003, -9.6720415164935170e-001,
       2.0865836995000945e-002, -1.9509557590325882e-001,
       4.8190112971708263e-002, -8.1923192051904042e-002,
       4.8190112971708263e-002, -8.1923192051904042e-002,
       2.8011204481792715e-002, -1.4285714285714282e-001,
       1.6512782766010176e-002, -2.5264557631995571e-001,
       9.6849359074260306e-003, -5.1039612232135179e-001,
       3.0632684936664437e-002, -1.3018891098082386e-001,
       6.8037050819557673e-002, -5.7831493196624020e-002,
       6.8037050819557673e-002, -5.7831493196624020e-002,
       1.7993390891808767e-002, -2.2941573387056177e-001,
       8.2040306968172143e-003, -7.3918316578323096e-001,
       7.8775232941997089e-003, -9.1064169280948626e-001,
       7.8433115526509046e-003, -1.0066890377827435e+000,
       7.8494193041709383e-003, -1.0408329997330663e+000,
       7.9288803826057640e-003, -1.1592023119369625e+000,
       8.0161956084075867e-003, -8.1083818579042743e-001,
       8.4544145165918357e-003, -6.7550771987568770e-001,
       8.5575643229800942e-003, -6.5465367070797720e-001,
       8.2983901461666579e-003, -7.1241679404840752e-001,
       8.1536326619717769e-003, -7.5543406613168518e-001,
       8.1867311957477817e-003, -7.4458320225326080e-001,
       8.3839212086167583e-003, -6.9125430365045171e-001,
       7.9636817804982704e-003, -8.3937205966451778e-001,
       8.5046313524447109e-003, -1.5036188231122249e+000,
       9.2718871322247133e-003, -1.8126539343499315e+000,
       9.3666140485070860e-003, -1.8470962903655972e+000,
       8.4067933893386699e-003, -1.4577379737113254e+000,
       7.9834600759705054e-003, -1.2078975094943376e+000,
       1.9260539586075903e-002, -2.1282896242613875e-001,
       4.8190112971708263e-002, -8.1923192051904042e-002,
       4.8190112971708263e-002, -8.1923192051904042e-002,
       2.5977553272089372e-002, -1.5456644196893177e-001,
       1.6100935634240001e-002, -2.6003011049297597e-001,
       1.0439899373823570e-002, -4.5256963785525178e-001,
       3.0632684936664437e-002, -1.3018891098082386e-001,
       6.8037050819557673e-002, -5.7831493196624020e-002,
       6.8037050819557673e-002, -5.7831493196624020e-002,
       1.7452671444027255e-002, -2.3735633163877068e-001,
       8.1867311957477817e-003, -7.4458320225326080e-001,
       7.8431372549019607e-003, -1., 7.8447063530980941e-003,
       -1.0202040612204073e+000, 7.8775232941997089e-003,
       -1.0981267472114395e+000, 7.9543929856801549e-003,
       -1.1832159566199230e+000, 8.1224806013228765e-003,
       -7.6635604473481334e-001, 8.5307503977886737e-003,
       -6.5985354326895385e-001, 9.1391691541735948e-003,
       -5.6708544601647148e-001, 8.9780760571193975e-003,
       -5.8761507793846457e-001, 8.2040306968172143e-003,
       -7.3918316578323096e-001, 8.3839212086167583e-003,
       -6.9125430365045171e-001, 8.3399884325316351e-003,
       -7.0181002659753711e-001, 7.9454990046383105e-003,
       -8.5096294339676304e-001, 8.4067933893386699e-003,
       -1.4577379737113254e+000, 9.1391691541735914e-003,
       -1.7634026882977945e+000, 8.8679807228754012e-003,
       -1.6583123951777001e+000, 8.3399884325316351e-003,
       -1.4248870236980298e+000, 7.9939582112506513e-003,
       -1.2162807418417867e+000, 1.5043446155516602e-002,
       -2.8131244310816045e-001, 4.8190112971708263e-002,
       -8.1923192051904042e-002, 4.8190112971708263e-002,
       -8.1923192051904042e-002, 2.8011204481792715e-002,
       -1.4285714285714282e-001, 1.5043446155516602e-002,
       -2.8131244310816045e-001, 1.1416665162382387e-002,
       -3.9787078090902617e-001, 3.4190481983476254e-002,
       -1.1624763874381926e-001, 6.8037050819557673e-002,
       -5.7831493196624020e-002, 6.8037050819557673e-002,
       -5.7831493196624020e-002, 2.1846510373770806e-002,
       -1.8569533817705186e-001, 8.1378172219538185e-003,
       -7.6088591025268204e-001, 7.8438345156274254e-003,
       -1.0134234194190632e+000, 7.8459274140990458e-003,
       -1.0270318985055651e+000, 7.8939981127027232e-003,
       -1.1205530320981514e+000, 7.9543929856801549e-003,
       -1.1832159566199230e+000, 7.9939582112506496e-003,
       -8.2217860202712922e-001, 8.7662158725502447e-003,
       -6.1845652980841970e-001, 9.5189811066204097e-003,
       -5.2592370614077766e-001, 8.7662158725502447e-003,
       -6.1845652980841970e-001, 8.1867311957477817e-003,
       -7.4458320225326080e-001, 8.4302866341178662e-003,
       -6.8074564570501772e-001, 8.0527305616675520e-003,
       -7.9399923338042055e-001, 7.8939981127027232e-003,
       -8.9241648664104278e-001, 8.5575643229800942e-003,
       -1.5275252316519468e+000, 8.9780760571193993e-003,
       -1.7017943166269822e+000, 8.4791911777335402e-003,
       -1.4919136877222163e+000, 8.3839212086167583e-003,
       -1.4466456045468217e+000, 7.9636817804982704e-003,
       -1.1913667943625412e+000, 1.3938598834765130e-002,
       -3.0804303424830942e-001, 4.8190112971708263e-002,
       -8.1923192051904042e-002, 3.9413247657224003e-002,
       -1.0050378152592120e-001, 2.5977553272089372e-002,
       -1.5456644196893177e-001, 1.4455093740676191e-002,
       -2.9488391230979427e-001, 1.2533387688246923e-002,
       -3.5156152465532620e-001, 6.8037050819557673e-002,
       -5.7831493196624020e-002, 6.8037050819557673e-002,
       -5.7831493196624020e-002, 6.8037050819557673e-002,
       -5.7831493196624020e-002, 2.8011204481792715e-002,
       -1.4285714285714282e-001, 8.1699346405228763e-003,
       -7.5000000000000000e-001, 7.8459274140990458e-003,
       -1.0270318985055651e+000, 7.8494193041709383e-003,
       -1.0408329997330663e+000, 7.9543929856801549e-003,
       -1.1832159566199230e+000, 7.9939582112506513e-003,
       -1.2162807418417867e+000, 7.8683564108345885e-003,
       -9.2295820699089726e-001, 8.7992549528691875e-003,
       -6.1330807021498235e-001, 9.1391691541735948e-003,
       -5.6708544601647148e-001, 8.4302866341178662e-003,
       -6.8074564570501772e-001, 8.1699346405228763e-003,
       -7.5000000000000000e-001, 8.1699346405228763e-003,
       -7.5000000000000000e-001, 7.9834600759705054e-003,
       -8.2788480987814139e-001, 7.8543157922048735e-003,
       -1.0548346108931146e+000, 8.7026673112389312e-003,
       -1.5904124511289146e+000, 8.6133443037856288e-003,
       -1.5521246435421703e+000, 8.4544145165918339e-003,
       -1.4803679818552300e+000, 8.3839212086167583e-003,
       -1.4466456045468217e+000, 7.8775232941997089e-003,
       -1.0981267472114395e+000, 1.7993390891808767e-002,
       -2.2941573387056177e-001, 4.8190112971708263e-002,
       -8.1923192051904042e-002, 3.9413247657224003e-002,
       -1.0050378152592120e-001, 2.5977553272089372e-002,
       -1.5456644196893177e-001, 1.5369839248423934e-002,
       -2.7435163058436723e-001, 1.3938598834765130e-002,
       -3.0804303424830942e-001, 1., 0., 6.8037050819557673e-002,
       -5.7831493196624020e-002, 6.8037050819557673e-002,
       -5.7831493196624020e-002, 3.4190481983476254e-002,
       -1.1624763874381926e-001, 8.4067933893386682e-003,
       -6.8599434057003528e-001, 7.8881403841891146e-003,
       -1.1130166082090840e+000, 7.9543929856801549e-003,
       -1.1832159566199230e+000, 8.3189033080770299e-003,
       -1.4142135623730951e+000, 8.2218418566424971e-003,
       -1.3627702877384940e+000, 7.9454990046383123e-003,
       -1.1751393027860064e+000, 8.2218418566424971e-003,
       -7.3379938570534287e-001, 8.6721136745779668e-003,
       -6.3393150961164935e-001, 8.4302866341178662e-003,
       -6.8074564570501772e-001, 7.9137975764272048e-003,
       -8.7447463219520616e-001, 8.0161956084075867e-003,
       -8.1083818579042743e-001, 7.8494193041709383e-003,
       -9.6076892283052284e-001, 8.2784378611911597e-003,
       -1.3932610920384723e+000, 8.7662158725502447e-003,
       -1.6169285176918926e+000, 8.4544145165918339e-003,
       -1.4803679818552300e+000, 8.5046313524447109e-003,
       -1.5036188231122249e+000, 8.3839212086167583e-003,
       -1.4466456045468217e+000, 7.8727595698104402e-003,
       -9.1678285190442577e-001, 3.0632684936664437e-002,
       -1.3018891098082386e-001, 4.8190112971708263e-002,
       -8.1923192051904042e-002, 3.9413247657224003e-002,
       -1.0050378152592120e-001, 2.4341349664775531e-002,
       -1.6552117772047362e-001, 1.5043446155516602e-002,
       -2.8131244310816045e-001, 1.5369839248423934e-002,
       -2.7435163058436723e-001, 1., 0., 6.8037050819557673e-002,
       -5.7831493196624020e-002, 6.8037050819557673e-002,
       -5.7831493196624020e-002, 2.5977553272089372e-002,
       -1.5456644196893177e-001, 8.2784378611911579e-003,
       -7.1774056256527341e-001, 7.9002251375037292e-003,
       -1.1281521496355327e+000, 8.1378172219538185e-003,
       -1.3142574813455417e+000, 8.6423459357109784e-003,
       -1.5646967316604727e+000, 8.6423459357109784e-003,
       -1.5646967316604727e+000, 9.2264399342756823e-003,
       -1.7959265332067615e+000, 8.8331683450913190e-003,
       -1.6442942874387492e+000, 7.9211486592821248e-003,
       -1.1513389576266568e+000, 7.8606247621301282e-003,
       -9.3541434669348522e-001, 7.8543157922048735e-003,
       -1.0548346108931146e+000, 7.9636817804982704e-003,
       -1.1913667943625412e+000, 8.6721136745779668e-003,
       -1.5774574774057322e+000, 1.0134835111857601e-002,
       -2.1105794120443453e+000, 9.6280120811811018e-003,
       -1.9395630337539329e+000, 9.4159840120561413e-003,
       -1.8648356335877190e+000, 9.3185971867011247e-003,
       -1.8297065576087659e+000, 8.4544145165918339e-003,
       -1.4803679818552300e+000, 8.3616570605881436e-003,
       -6.9652603314699235e-001, 3.9413247657224003e-002,
       -1.0050378152592120e-001, 4.8190112971708263e-002,
       -8.1923192051904042e-002, 3.9413247657224003e-002,
       -1.0050378152592120e-001, 2.1846510373770806e-002,
       -1.8569533817705186e-001, 1.4739314026097947e-002,
       -2.8815358921021489e-001, 1.7452671444027255e-002,
       -2.3735633163877068e-001, 1., 0., 6.8037050819557673e-002,
       -5.7831493196624020e-002, 6.8037050819557673e-002,
       -5.7831493196624020e-002, 1.7452671444027255e-002,
       -2.3735633163877068e-001, 8.3399884325316351e-003,
       -7.0181002659753711e-001, 7.9288803826057640e-003,
       -1.1592023119369625e+000, 8.0792710140228340e-003,
       -1.2773327473170100e+000, 8.7992549528691892e-003,
       -1.6305019427666609e+000, 9.8039215686274508e-003, -2.,
       1.0064498688664044e-002, -2.0873770280289228e+000,
       1.0064498688664044e-002, -2.0873770280289228e+000,
       9.5727140427076373e-003, -1.9202864369671520e+000,
       9.3666140485070860e-003, -1.8470962903655972e+000,
       9.7435497349014251e-003, -1.9794021286452246e+000,
       1.0883918977684244e-002, -2.3498381072820282e+000,
       1.2215861921203882e-002, -2.7516228977511745e+000,
       1.1191293480544866e-002, -2.4447380608250260e+000,
       9.8039215686274508e-003, -2., 9.8039215686274508e-003, -2.,
       9.7435497349014251e-003, -1.9794021286452246e+000,
       8.3839212086167583e-003, -1.4466456045468217e+000,
       9.0564748108176597e-003, -5.7735026918962584e-001,
       4.8190112971708263e-002, -8.1923192051904042e-002,
       3.9413247657224003e-002, -1.0050378152592120e-001,
       3.9413247657224003e-002, -1.0050378152592120e-001,
       2.1846510373770806e-002, -1.8569533817705186e-001,
       1.5043446155516602e-002, -2.8131244310816045e-001,
       2.2988642421982321e-002, -1.7586311452816475e-001, 1., 0.,
       6.8037050819557673e-002, -5.7831493196624020e-002,
       6.8037050819557673e-002, -5.7831493196624020e-002,
       1.5721249524260256e-002, -2.6726124191242434e-001,
       8.6721136745779668e-003, -6.3393150961164935e-001,
       7.8447063530980941e-003, -9.8019605881960692e-001,
       8.1224806013228765e-003, -1.3048765086025202e+000,
       9.4667558742209321e-003, -1.8829377433825434e+000,
       9.9963282732270942e-003, -2.0647416048350564e+000,
       1.0064498688664044e-002, -2.0873770280289228e+000,
       1.0064498688664044e-002, -2.0873770280289228e+000,
       9.9963282732270942e-003, -2.0647416048350564e+000,
       1.0207435417555951e-002, -2.1343747458109492e+000,
       1.1660804577452012e-002, -2.5869494955077288e+000,
       1.1416665162382385e-002, -2.5133788354984823e+000,
       1.1416665162382385e-002, -2.5133788354984823e+000,
       9.9302319880776382e-003, -2.0426487199475702e+000,
       9.8039215686274508e-003, -2., 9.6849359074260323e-003,
       -1.9592625340722865e+000, 8.8331683450913190e-003,
       -1.6442942874387492e+000, 7.8775232941997089e-003,
       -1.0981267472114395e+000, 1.0359852259946277e-002,
       -4.5790546988962549e-001, 4.8190112971708263e-002,
       -8.1923192051904042e-002, 3.9413247657224003e-002,
       -1.0050378152592120e-001, 3.9413247657224003e-002,
       -1.0050378152592120e-001, 2.1846510373770806e-002,
       -1.8569533817705186e-001, 1.5043446155516602e-002,
       -2.8131244310816045e-001, 6.8037050819557673e-002,
       -5.7831493196624020e-002, 1., 0., 1., 0., 1., 0.,
       1.9260539586075903e-002, -2.1282896242613875e-001,
       9.2264399342756806e-003, -5.5681565003353739e-001,
       8.2983901461666579e-003, -7.1241679404840752e-001,
       7.8775232941997089e-003, -1.0981267472114395e+000,
       9.1822138390362171e-003, -1.7795130420052190e+000,
       9.7435497349014251e-003, -1.9794021286452246e+000,
       9.9963282732270942e-003, -2.0647416048350564e+000,
       9.9302319880776382e-003, -2.0426487199475702e+000,
       9.9302319880776382e-003, -2.0426487199475702e+000,
       1.0207435417555951e-002, -2.1343747458109492e+000,
       1.0883918977684244e-002, -2.3498381072820282e+000,
       1.0282403985213028e-002, -2.1587907166954752e+000,
       9.8661234932006566e-003, -2.0210753975821545e+000,
       9.6849359074260323e-003, -1.9592625340722865e+000,
       9.1391691541735914e-003, -1.7634026882977945e+000,
       8.6721136745779668e-003, -1.5774574774057322e+000,
       8.0279447817963104e-003, -1.2419230577438891e+000,
       8.1867311957477817e-003, -7.4458320225326080e-001,
       1.2215861921203882e-002, -3.6342189215581550e-001,
       4.8190112971708263e-002, -8.1923192051904042e-002,
       3.9413247657224003e-002, -1.0050378152592120e-001,
       3.9413247657224003e-002, -1.0050378152592120e-001,
       2.4341349664775531e-002, -1.6552117772047362e-001,
       1.4739314026097947e-002, -2.8815358921021489e-001, 1., 0., 1., 0.,
       1., 0., 1., 0., 4.8190112971708263e-002, -8.1923192051904042e-002,
       1.3938598834765130e-002, -3.0804303424830942e-001,
       9.0167549924259679e-003, -5.8248237251071744e-001,
       8.3616570605881436e-003, -6.9652603314699235e-001,
       7.8606247621301282e-003, -1.0690449676496974e+000,
       8.7992549528691892e-003, -1.6305019427666609e+000,
       9.4667558742209321e-003, -1.8829377433825434e+000,
       9.7435497349014251e-003, -1.9794021286452246e+000,
       9.7435497349014251e-003, -1.9794021286452246e+000,
       9.6849359074260323e-003, -1.9592625340722865e+000,
       8.6133443037856288e-003, -1.5521246435421703e+000,
       8.3189033080770299e-003, -1.4142135623730951e+000,
       8.9037179036159392e-003, -1.6725634081942542e+000,
       8.6133443037856288e-003, -1.5521246435421703e+000,
       8.3189033080770299e-003, -1.4142135623730951e+000,
       7.9543929856801549e-003, -1.1832159566199230e+000,
       8.0401212559287217e-003, -7.9959005890211143e-001,
       1.0134835111857601e-002, -4.7380354147934284e-001,
       1.4455093740676191e-002, -2.9488391230979427e-001,
       4.8190112971708263e-002, -8.1923192051904042e-002,
       3.9413247657224003e-002, -1.0050378152592120e-001,
       3.9413247657224003e-002, -1.0050378152592120e-001,
       2.5977553272089372e-002, -1.5456644196893177e-001,
       1.7452671444027255e-002, -2.3735633163877068e-001, 1., 0., 1., 0.,
       1., 0., 1., 0., 1., 0., 3.9413247657224003e-002,
       -1.0050378152592120e-001, 2.0012171101169755e-002,
       -2.0412414523193148e-001, 1.2067793233267914e-002,
       -3.6927447293799820e-001, 1.0064498688664042e-002,
       -4.7907013758040845e-001, 8.4791911777335402e-003,
       -6.7028006259983630e-001, 7.9454990046383105e-003,
       -8.5096294339676304e-001, 7.8939981127027232e-003,
       -8.9241648664104278e-001, 7.9137975764272048e-003,
       -8.7447463219520616e-001, 8.3189033080770299e-003,
       -7.0710678118654757e-001, 8.7662158725502447e-003,
       -6.1845652980841970e-001, 8.7992549528691875e-003,
       -6.1330807021498235e-001, 8.4791911777335402e-003,
       -6.7028006259983630e-001, 8.2040306968172143e-003,
       -7.3918316578323096e-001, 8.6133443037856288e-003,
       -6.4427815392316501e-001, 9.4667558742209321e-003,
       -5.3108500454379426e-001, 1.3480860250414872e-002,
       -3.2084447395987398e-001, 2.0012171101169755e-002,
       -2.0412414523193148e-001, 6.8037050819557673e-002,
       -5.7831493196624020e-002, 6.8037050819557673e-002,
       -5.7831493196624020e-002, 3.9413247657224003e-002,
       -1.0050378152592120e-001, 4.8190112971708263e-002,
       -8.1923192051904042e-002, 3.9413247657224003e-002,
       -1.0050378152592120e-001, 1.8592339448265119e-002,
       -2.2124883943435492e-001, 1., 0., 1., 0., 1., 0., 1., 0., 1., 0.,
       1., 0., 1., 0., 1., 0., 4.8190112971708263e-002,
       -8.1923192051904042e-002, 4.8190112971708263e-002,
       -8.1923192051904042e-002, 3.0632684936664437e-002,
       -1.3018891098082386e-001, 3.0632684936664437e-002,
       -1.3018891098082386e-001, 3.9413247657224003e-002,
       -1.0050378152592120e-001, 4.8190112971708263e-002,
       -8.1923192051904042e-002, 4.8190112971708263e-002,
       -8.1923192051904042e-002, 4.8190112971708263e-002,
       -8.1923192051904042e-002, 6.8037050819557673e-002,
       -5.7831493196624020e-002, 6.8037050819557673e-002,
       -5.7831493196624020e-002, 4.8190112971708263e-002,
       -8.1923192051904042e-002, 6.8037050819557673e-002,
       -5.7831493196624020e-002, 1., 0., 1., 0., 1., 0.,
       6.8037050819557673e-002, -5.7831493196624020e-002,
       6.8037050819557673e-002, -5.7831493196624020e-002,
       6.8037050819557673e-002, -5.7831493196624020e-002,
       3.9413247657224003e-002, -1.0050378152592120e-001,
       2.5977553272089372e-002, -1.5456644196893177e-001, 1., 0., 1., 0.,
       1., 0., 1., 0., 1., 0., 1., 0., 1., 0., 1., 0., 1., 0., 1., 0.,
       1., 0., 1., 0., 1., 0., 1., 0., 1., 0., 1., 0., 1., 0., 1., 0.,
       1., 0., 1., 0., 1., 0., 1., 0., 1., 0., 4.8190112971708263e-002,
       -8.1923192051904042e-002, 4.8190112971708263e-002,
       -8.1923192051904042e-002, 6.8037050819557673e-002,
       -5.7831493196624020e-002, 3.4190481983476254e-002,
       -1.1624763874381926e-001, 2.4341349664775531e-002,
       -1.6552117772047362e-001, 3.0632684936664437e-002,
       -1.3018891098082386e-001, 3.0632684936664437e-002,
       -1.3018891098082386e-001, 3.4190481983476254e-002,
       -1.1624763874381926e-001, 4.8190112971708263e-002,
       -8.1923192051904042e-002, 4.8190112971708263e-002,
       -8.1923192051904042e-002, 6.8037050819557673e-002,
       -5.7831493196624020e-002, 6.8037050819557673e-002,
       -5.7831493196624020e-002, 6.8037050819557673e-002,
       -5.7831493196624020e-002, 1., 0., 1., 0., 1., 0., 1., 0., 1., 0.,
       1., 0., 1., 0., 1., 0., 1., 0., 1., 0., 1., 0., 1., 0., 1., 0.,
       1., 0., 4.8190112971708263e-002, -8.1923192051904042e-002,
       3.9413247657224003e-002, -1.0050378152592120e-001,
       3.0632684936664437e-002, -1.3018891098082386e-001,
       2.5977553272089372e-002, -1.5456644196893177e-001,
       2.8011204481792715e-002, -1.4285714285714282e-001,
       1.9260539586075903e-002, -2.1282896242613875e-001,
       7.8727595698104402e-003, -9.1678285190442577e-001,
       7.9288803826057658e-003, -8.6266218562750729e-001,
       8.0657784728360108e-003, -7.8842984571972008e-001,
       8.2784378611911579e-003, -7.1774056256527341e-001,
       8.5850898212587630e-003, -6.4946204497822546e-001,
       9.1822138390362153e-003, -5.6195148694901642e-001,
       9.4667558742209321e-003, -5.3108500454379426e-001,
       9.8661234932006566e-003, -4.9478609318401290e-001,
       1.0282403985213032e-002, -4.6322229953384703e-001,
       1.0788768758517264e-002, -4.3101131190276470e-001,
       1.1416665162382387e-002, -3.9787078090902617e-001,
       1.1926206862652857e-002, -3.7507920583043236e-001,
       1.2370885790221652e-002, -3.5751859933740571e-001,
       1.3480860250414872e-002, -3.2084447395987398e-001,
       1.4455093740676191e-002, -2.9488391230979427e-001,
       1.4188769156600639e-002, -3.0151134457776357e-001,
       1.4188769156600639e-002, -3.0151134457776357e-001,
       1.4188769156600639e-002, -3.0151134457776357e-001,
       1.3071895424836602e-002, -3.3333333333333337e-001,
       1.2533387688246923e-002, -3.5156152465532620e-001,
       1.2067793233267914e-002, -3.6927447293799820e-001,
       1.1660804577452012e-002, -3.8655567174253419e-001,
       1.1926206862652857e-002, -3.7507920583043236e-001,
       1.2703947435020001e-002, -3.4554737023254400e-001,
       1.2883210041339261e-002, -3.3947258458928953e-001,
       1.2533387688246923e-002, -3.5156152465532620e-001,
       1.1790673961445817e-002, -3.8083876895469987e-001,
       1.1301772896161471e-002, -4.0347329239296453e-001 ]
   output_scale: [ 5.2631578947368418e-001, 4.9999999999999994e-001,
       5.2631578947368418e-001, 4.9999999999999994e-001,
       5.2631578947368418e-001, 4.9999999999999994e-001,
       5.2631578947368418e-001, 4.9999999999999994e-001,
       5.2631578947368418e-001, 4.9999999999999994e-001,
       5.2631578947368418e-001, 4.9999999999999994e-001,
       5.2631578947368418e-001, 4.9999999999999994e-001,
       5.2631578947368418e-001, 4.9999999999999994e-001,
       5.2631578947368418e-001, 4.9999999999999994e-001,
       5.2631578947368418e-001, 4.9999999999999994e-001 ]
   inv_output_scale: [ 1.8999999999999999e+000, -9.4999999999999996e-001,
       1.8999999999999999e+000, -9.4999999999999996e-001,
       1.8999999999999999e+000, -9.4999999999999996e-001,
       1.8999999999999999e+000, -9.4999999999999996e-001,
       1.8999999999999999e+000, -9.4999999999999996e-001,
       1.8999999999999999e+000, -9.4999999999999996e-001,
       1.8999999999999999e+000, -9.4999999999999996e-001,
       1.8999999999999999e+000, -9.4999999999999996e-001,
       1.8999999999999999e+000, -9.4999999999999996e-001,
       1.8999999999999999e+000, -9.4999999999999996e-001 ]
   weights:
      - [ -9.6717553141008758e-002, -1.2816946131535131e-002,
          1.2502768302322930e-002, -4.6148185097607030e-003,
          -5.3087033726286897e-003, 1.6732516073473596e-003,
          4.4564880589898336e-003, 1.0699563743442480e-002,
          3.5129261452177558e-003, -2.5069354258349892e-002,
          2.7885457809930500e-002, -1.4438705943918688e-002,
          5.7351715368325991e-003, -7.3794952642511815e-003,
          -2.0302152548347361e-002, -4.8649938884319302e-003,
          -1.9603352055600873e-003, 1.3431098819427719e-002,
          1.0500373795007881e-002, 2.0556267912465839e-003,
          -1.0299417266485841e-003, 8.6910825714262355e-003,
          1.0138700465104150e-002, -3.4567551521059530e-003,
          -6.9953880425773669e-003, 1.2606059289982865e-002,
          -5.4833300086510536e-003, 3.7895943206645410e-002,
          1.2472850373193669e-003, -1.2747369514203937e-003,
          1.3344149586539938e-002, 2.9457531648076399e-003,
          -3.3879316424000674e-003, 2.0373752503086186e-002,
          1.9310131425965289e-002, 1.1495088394859273e-002,
          -2.5094903683018598e-002, 1.0486298210400565e-002,
          -7.8463725253517212e-003, -4.0775095461111112e-003,
          -1.5903571403585545e-002, -2.7734347179045804e-003,
          -7.2385585755156397e-004, -1.0502890552252047e-002,
          -7.5005853054616991e-003, 8.0295391059371692e-003,
          1.2580246875105292e-002, -5.0712173278125751e-003,
          7.5869024091707671e-003, -9.2547870890976273e-003,
          9.1881865024937438e-003, 6.3734531537131267e-003,
          -1.0887752487440831e-002, 4.3555953023300426e-002,
          1.8678303908239054e-002, -2.6082733436751842e-003,
          7.5057915958189319e-003, 1.6928395754791280e-002,
          1.9481791115597954e-003, 2.2296635960053816e-002,
          2.5103590985085474e-002, -1.6753252766819604e-002,
          1.4682748896030634e-003, 7.7749643219033084e-003,
          5.8284118983585199e-003, 5.7709312570754815e-003,
          5.0052468234158907e-003, 4.0652106568989958e-003,
          4.1066917866612821e-003, -2.1310526176985277e-002,
          -2.1586786165944056e-003, 3.5991400459547534e-004,
          -1.0447631332947396e-002, -1.0843218515064910e-003,
          3.5319838553238788e-003, -7.0112748432486311e-003,
          -7.4610372915853999e-004, 9.6160394642761330e-003,
          -4.6991873275564061e-003, 3.7197199765542630e-002,
          -1.0764921215338553e-002, 4.7313787143923834e-002,
          -1.2468946384055046e-002, 1.8638546550580060e-003,
          2.6580363045163986e-002, 6.8461633918817863e-003,
          5.0469712465915223e-003, 1.5992250540400120e-003,
          -1.7121639648422921e-002, -1.7044171846149396e-004,
          -7.6067535737362243e-003, 1.9563422086713873e-002,
          5.8809216186532596e-003, -4.2816032278937466e-003,
          -1.0633134910829236e-002, -9.8344087589601441e-003,
          7.9650863759592131e-003, 3.8783498803547797e-002,
          -1.0971905809774251e-003, -4.1687449999780277e-003,
          -9.3441767572180215e-002, -2.5457371353533372e-002,
          5.6066112704873730e-003, 9.2994861855128595e-003,
          -1.3860981337819753e-002, -6.3862826237380988e-004,
          5.9945041568462741e-003, 9.0806653320197658e-003,
          7.3543675397217305e-003, -3.6195243972173788e-002,
          3.3350959387084766e-002, -1.1428685654904618e-002,
          5.5391768309823548e-003, -5.2434485159978516e-003,
          -1.7984197035513384e-002, 5.6250494170864370e-004,
          1.4345308898974455e-002, 1.1422743348507717e-002,
          7.1004755923272499e-003, 2.8095789555644922e-003,
          -1.9751240197309421e-003, 5.4112460158733623e-003,
          8.5064998285129152e-003, -4.3644713323869417e-003,
          -7.0798652878573893e-003, 1.4755599183116686e-002,
          -1.4983708832931885e-002, 4.1315874455915676e-002,
          1.0048706731216321e-002, -4.3005597631112944e-003,
          1.7236032580918600e-002, 2.0250280323167442e-003,
          -6.1549652611245587e-003, 2.3169357804949751e-002,
          1.0988655284501799e-002, 1.6815414436358568e-002,
          -3.2081722828032989e-002, 2.0019612669360844e-002,
          -9.1192371727727706e-003, -4.1883348640541279e-003,
          -1.3975430317966933e-002, 5.6501314735991331e-003,
          1.1476784453464867e-002, -1.2613988536297411e-002,
          -1.0964487867572714e-002, 1.5524375695502975e-002,
          1.2057138965840214e-002, -1.7167805337548782e-002,
          -3.2888038632740051e-003, -4.0687796179167037e-003,
          8.9352527917456858e-003, 1.4982606792813652e-002,
          -1.2522801828630034e-002, 3.4802083497443646e-002,
          1.9247524298655529e-002, -2.9694282123316081e-003,
          5.6586956136736311e-003, 1.4519382850160311e-002,
          4.6521857425284863e-003, 2.8581711429865313e-002,
          2.6617730350101607e-002, -2.3890830063834346e-002,
          4.0893324257653884e-003, 6.6910475405183726e-003,
          -2.3864901525049503e-003, 8.6116591056079207e-003,
          1.2270293462379837e-002, 7.9304381798368240e-003,
          -1.5951065671792905e-003, -2.6513264996426384e-002,
          -1.3174243174823522e-003, 1.2824788773599684e-002,
          -1.3769431405692969e-002, 1.9931444633800905e-003,
          6.0203920913160357e-003, -3.0381542641267209e-003,
          -3.6198248569467881e-003, 1.4491548171598393e-002,
          -9.5934974226455846e-003, 3.5282096873849048e-002,
          -1.9662260447492204e-002, 5.4392544666232653e-002,
          -1.4258149999588413e-002, 2.8283586406057546e-003,
          2.6726897080924225e-002, 5.7837929612812424e-003,
          1.6040339083024581e-002, 3.5703834035468061e-003,
          -1.3840252686536386e-002, -3.3631189845337046e-003,
          -8.9079930055390791e-003, 2.2821533751681115e-002,
          1.0128748547793083e-002, -6.1475042919048309e-003,
          -9.7491256795836350e-003, -1.4031401783643593e-002,
          1.6772444370760555e-003, 3.1073567786630885e-002,
          5.1668094874714084e-003, 1.2354879262970402e-002,
          4.2481191051511095e-002, 2.3905280057929150e-003,
          1.9071908258706839e-002, 4.5432923707743348e-003,
          -3.9028394171389978e-003, -1.5751184108364402e-002,
          8.9133523575205074e-003, -1.3169315906308757e-003,
          6.1624621569022478e-003, -4.2758805557764054e-002,
          3.3600868471727344e-002, -4.0086451642236043e-003,
          3.1593506415383559e-003, 6.9432218608390800e-003,
          -1.7585302384963791e-002, -2.4016578107199540e-003,
          1.7493752212107801e-002, 8.7102314967775572e-003,
          4.5670275676543614e-003, -2.7414935749683535e-003,
          -7.1965198965161549e-003, 7.0748286020537680e-003,
          3.8358561954631621e-003, -6.5417890391970598e-003,
          -7.9007130132841014e-003, 1.7693162217109325e-002,
          -1.1764358241361222e-002, 3.0073194425468928e-002,
          1.1281313344101332e-002, 6.8217914577530297e-003,
          9.5971217584812068e-003, -8.3873202494813212e-003,
          9.2554464614144020e-003, 1.9389113218958726e-002,
          7.8954878276182548e-003, 1.8484573094839481e-002,
          -1.5191217600286234e-002, 1.3231931724661521e-002,
          -6.9765650080924699e-003, -1.2000287857678558e-002,
          -2.0637485254493285e-002, 9.6805353570660209e-004,
          9.0234941981686863e-003, -2.1600524956965392e-002,
          -1.7296547381563245e-002, 8.5731903228502184e-003,
          3.7172952661173033e-003, -1.5582698359748563e-002,
          -5.7306295954380930e-003, 2.2101540535996106e-003,
          -6.5764842481214007e-003, 2.3000167769261986e-002,
          2.8160728501829780e-003, 3.1803270179804249e-002,
          1.2277619981487610e-002, 1.8256988057049391e-002,
          1.1917219638552433e-002, 1.5671164415550175e-002,
          -2.1707946402255068e-002, 3.8828831570619358e-002,
          -5.6942877665635550e-003, -2.2639538674991296e-002,
          5.0551192692324309e-003, 1.8819920080360259e-003,
          -6.5469549938852066e-003, 5.3480684673533289e-003,
          1.5472224152730264e-002, 1.6315797922564447e-003,
          2.5139501643340685e-003, -1.9290154102856949e-002,
          -6.2691741689938369e-003, 1.6898676978958849e-002,
          -2.4634114601816186e-002, 4.8111562401101562e-003,
          9.1737244153725916e-003, 4.9264145481139150e-003,
          -7.1656820053941301e-003, 1.6911646433166339e-002,
          -1.1796208705742483e-002, 2.7317515060578949e-002,
          -1.7451916356548296e-002, 1.8298739532156293e-002,
          -1.5742568427658352e-002, 9.8045095657183327e-003,
          1.9223675961965218e-002, 1.0049172638598558e-002,
          1.7325449047652017e-002, -3.6097022595915559e-003,
          -1.4635436917865024e-002, 6.5375515595749397e-006,
          -7.9018941803295929e-003, 1.5784430957025530e-002,
          1.0977929132118085e-002, -5.0881998630995439e-003,
          -8.5676662308455821e-003, -1.9444405374554517e-002,
          -1.6571516284462348e-004, 3.1493106873225450e-002,
          5.2273277676608528e-003, 1.1329055724926103e-002,
          -3.3324455960570112e-002, 1.3470989888842103e-002,
          4.0102201663220330e-002, -1.9700083738878114e-003,
          -6.1010302112267759e-005, -1.6643698170627705e-002,
          1.1073423290954298e-002, -2.1694932766870476e-003,
          1.2686904296771167e-002, -3.7281774405388060e-002,
          3.0182711129198566e-002, -8.2463130152760598e-003,
          -5.1122958983664847e-003, 1.3007317051003659e-002,
          -4.6545720864253253e-003, -6.9647360927453661e-003,
          2.9021306109922349e-002, 1.0553361355378335e-002,
          -4.6109807572011617e-004, -2.2947470656912244e-003,
          -8.8322940416512286e-003, -7.6259019520376180e-003,
          4.0018307360609401e-003, -5.6162002423468986e-003,
          3.1251935655789110e-003, 1.1175773071310407e-002,
          -1.4784752108174332e-002, 2.0882170657618136e-002,
          1.1795570175355910e-002, 4.5359248991911150e-003,
          1.0357378364619094e-002, -1.3348999070979011e-002,
          9.4406418392667182e-003, 1.9535513095574091e-002,
          2.4597277591604585e-002, 1.6089505688849003e-002,
          -1.1774708657808372e-002, 1.0351998975371562e-002,
          -3.8709344999031509e-003, -6.9149457818072852e-003,
          -2.1044097763899039e-002, 1.7672517110647987e-003,
          -1.0773192787999828e-002, -1.7111687730276832e-002,
          -1.2714521026671945e-002, 5.7685449159673493e-003,
          4.2930188392033180e-003, -6.7441332916384576e-003,
          4.4354879973490394e-003, -2.8380720515759337e-003,
          6.8445038945654157e-003, 2.4759234221997904e-002,
          7.4628348234573611e-003, 3.8865617628247279e-002,
          1.3362594880984296e-002, 1.0234408351174481e-002,
          7.4568898442083070e-003, 3.9152977716616208e-003,
          -2.3944823804548605e-002, 4.0312070559305850e-002,
          -1.4199331144284559e-002, -1.1996317467088012e-002,
          1.0482545550141538e-002, 2.5747558340158475e-003,
          -9.7506196464901881e-003, 8.5686786488740126e-004,
          1.9203268551655567e-002, -1.6204719293035732e-003,
          1.1090954459990761e-002, -1.9976940929466263e-002,
          -4.6321676143487745e-003, 1.2368644178272294e-002,
          -1.1183452361140373e-002, -2.0071824389966499e-003,
          5.2456058808543413e-003, 1.5526972829839807e-003,
          -1.0893028616250891e-002, 1.0312984185485671e-002,
          -1.4219610825023109e-002, 1.9670400207809587e-002,
          -1.8282599262569400e-002, 1.1189599253834134e-002,
          -2.1528625631354801e-002, 1.4422186677902130e-002,
          1.3336742653923053e-002, 5.8957247362403809e-003,
          1.0553708431786680e-002, -1.2790966114770271e-002,
          -1.1946369698819235e-002, 3.0593894599904993e-003,
          -3.9760144242110872e-003, 4.1681965312200123e-003,
          8.3734205718555901e-003, -8.2085311282694556e-003,
          -5.0443849310334056e-003, -1.3512397058027663e-002,
          -1.9176190751164295e-003, 3.3651504937642809e-002,
          3.7957501172711191e-003, 1.4147045043058884e-003,
          6.8807015514642288e-003, 9.8919368527826956e-003,
          3.0599291362740023e-002, -2.9863337333396744e-003,
          4.7698261899269828e-004, 2.6709692216901012e-003,
          2.1208587396361670e-002, -2.6809507350366558e-002,
          -8.3876263443997158e-003, -2.5677423330637487e-002,
          2.7050740272011771e-002, 2.8251498554051797e-003,
          -5.9971349445554021e-003, 3.1397957937670260e-003,
          -1.3032582815249145e-002, 6.2774753441838353e-003,
          -1.3976280358145524e-003, 1.4271103980061168e-002,
          -2.7865537467282706e-003, 1.2682343953087837e-002,
          -1.4020044502515075e-002, 1.1991444150968962e-002,
          8.9638713821100276e-003, -1.2047125496991648e-002,
          -2.9492179884297973e-003, 1.4770417618430976e-002,
          -6.6160455608992733e-003, 2.7360970975001012e-002,
          -3.5233180079198199e-003, 2.3329829470996901e-002,
          7.4406021430631778e-003, -1.2232925067197928e-002,
          1.5695990296388917e-002, 1.8313256381823389e-002,
          1.7404402125142372e-002, 7.4750094627282718e-003,
          -1.4070605539964842e-002, 9.0160208196049599e-003,
          -7.0796531990944614e-003, -5.9473566161368377e-003,
          -1.7395463887157916e-002, -1.8224540338596157e-003,
          -7.3284391623410884e-003, -2.0124521583884275e-003,
          -1.8842974812714401e-002, -2.7986161749984947e-003,
          -1.4429015522549422e-002, -6.7088285969825398e-003,
          -1.0815759289760109e-002, -1.3455541729676923e-002,
          -2.8842106052044728e-003, 1.0416770923616465e-002,
          -1.4104933651928886e-003, 2.0780596939356074e-002,
          6.3466590261768586e-003, 1.0896216949947510e-002,
          1.7803550494799860e-003, 1.0019770531308115e-002,
          3.1577060607410295e-003, 1.9912881555848354e-002,
          -3.6798901218464855e-003, -1.8338596377854972e-002,
          3.3296942830257810e-003, 1.2263814525264241e-002,
          5.1392141895594762e-003, -1.4476564361653153e-002,
          7.3871963160471376e-003, -1.3843101343438311e-002,
          7.2188130349280935e-003, -9.1101731192319387e-005,
          2.9336566958515936e-003, -1.8850765095192911e-002,
          -1.2779307139642128e-002, -9.9199115669680316e-003,
          1.3201492949614833e-002, -1.7889443520409446e-002,
          -1.4727112522931379e-002, 7.7008074248994659e-003,
          -2.7356449181240340e-003, 2.0132010290860945e-002,
          -1.1551032923056193e-002, 1.0747510650143793e-002,
          -6.3322873865374451e-003, 8.4481237064868240e-003,
          1.6643797113659549e-002, -2.7976240162169022e-003,
          1.3275320834413573e-003, -1.3806200717466121e-002,
          -5.1370313167948380e-003, 6.7207985549226062e-003,
          -2.3806989031126095e-002, 2.4152886738684980e-002,
          1.3364681952898567e-002, -5.7226111141810024e-004,
          -1.0446745557467713e-002, -1.4081101055518786e-002,
          1.8186509138055484e-002, 1.7266673370986228e-002,
          -4.1798735265055724e-003, 5.5793772376956869e-003,
          -1.1129752393020444e-001, 2.1726764372752120e-002,
          3.8728441405684981e-002, -6.8154920413578644e-003,
          2.2410660860874062e-003, 5.5519562983154126e-003,
          8.3011559049738157e-003, -1.4219260051880218e-002,
          -2.9449500340372118e-003, -2.1037277582188103e-002,
          3.2913893309750593e-002, 6.2448167804742263e-003,
          -3.1676433120472465e-003, 1.1499537634230735e-003,
          -1.3391314137436328e-002, 8.2264931644086270e-003,
          -9.1706737029073390e-003, 8.5485328262358412e-003,
          1.4492107878303049e-003, 1.0693875881208468e-002,
          -1.8272969645526767e-002, 1.4754492575646434e-002,
          1.0794693186771025e-002, -1.3289257194497186e-002,
          -1.4935505613132996e-003, 7.6239926069604138e-003,
          3.6823353035853311e-004, 2.1829944880473313e-002,
          -1.5416108063100795e-002, 3.0238331023207179e-002,
          9.8755965817789084e-003, -9.5621921409332136e-003,
          1.3262269386142849e-002, 1.4250937273096786e-002,
          3.0848977294016307e-002, 2.2129512336506747e-003,
          -5.9397550552272010e-003, 3.7723916855781914e-003,
          -8.5230366498040225e-003, -4.5280818855553758e-004,
          -1.9967657524033532e-002, -1.2871534011266641e-002,
          -2.1752961995026882e-002, -1.9379255043785282e-003,
          -1.7168046301174134e-002, -9.0906797828808460e-003,
          -1.8627750107062892e-002, 1.2856830582956003e-003,
          -9.3843221896864441e-003, -1.0152877827776454e-002,
          -6.9512756972006460e-003, 1.2726192329389541e-002,
          -6.0860020771780730e-003, 2.9535391877502204e-002,
          5.0134585717511171e-003, 7.3705547261997623e-003,
          6.9599174617831052e-003, 1.0837164922414202e-002,
          -1.8148983111711972e-003, 1.9354680965156516e-002,
          -7.8756974245598604e-003, -8.9832562762097098e-003,
          -7.1787198400607733e-005, 7.1369756165014309e-003,
          1.0360160226606742e-002, -1.7649914245969827e-002,
          1.1812846976591868e-002, -1.5484289364654564e-002,
          7.1311882238645355e-003, -6.8074479107973270e-004,
          2.6995912193406211e-003, -1.9925449289050684e-002,
          -1.3305097661957871e-002, -6.6308844684821872e-003,
          1.1316856755329903e-002, -2.0123635223647171e-002,
          -1.4142095387715126e-002, -1.9908556143115858e-004,
          6.7652434996723736e-003, 2.1923394837778092e-002,
          -8.7912003493342081e-003, -8.4123625268257753e-003,
          -6.7721720482538401e-003, -1.4332312140143100e-002,
          1.5406356959667643e-002, -5.9022871689054677e-003,
          -5.5368634267339975e-003, -1.0793249477559498e-002,
          -1.2081315464668486e-002, 5.9032793645468129e-003,
          -1.7746351941050842e-002, 2.1491497813492560e-002,
          9.2167370177908669e-003, 3.1441455682069686e-003,
          -5.4992192129900723e-003, -1.3120250038238558e-002,
          1.7606677647063446e-002, 2.0521350877397693e-002,
          -1.4366301814304440e-003, -1.6018471268532477e-002,
          -1.6651872873569790e-001, 2.2178763512698565e-002,
          2.4734378003637158e-002, 4.6557483467157450e-003,
          -3.0197621240759948e-003, -9.0534018321045725e-004,
          1.1375680618732212e-002, -1.6393325610589937e-002,
          4.7163364653658914e-003, -1.6580471179444976e-002,
          3.4475729697235433e-002, -7.0394874792369523e-004,
          -7.2411768083621110e-003, 6.7813073555259300e-004,
          -4.3331886849353957e-003, 4.2381116426936710e-003,
          -2.8293075983821152e-003, 6.7352705890666711e-003,
          4.2844748217660971e-004, 3.2994036285261714e-003,
          -9.7072846686521389e-003, 4.9797651848155463e-003,
          1.9326019384612435e-002, -1.2963908252142669e-002,
          8.1986696206159410e-003, -3.4726828834011477e-003,
          1.6522334368920730e-003, 1.6727292974404097e-002,
          -1.5292583323541185e-002, 1.8628423422867017e-002,
          1.6311329245269741e-002, -1.6256687312127829e-002,
          8.0023844431775445e-003, 6.9627957518035169e-003,
          3.5250562681353653e-002, 2.3879483907906763e-003,
          -6.7033021341245122e-003, -2.3079410343416094e-003,
          -6.4413208104184307e-003, 2.7871078492447379e-003,
          -1.5495180372398712e-002, -9.8767440644114256e-003,
          -2.3274757990171303e-002, 9.0689110604577159e-003,
          -1.3684785337147143e-002, -2.3145689541533340e-003,
          -1.0802081102566891e-002, 4.5181946844949968e-003,
          -1.0544303443224008e-003, -7.1127058589126966e-003,
          -6.1004877457251517e-003, 1.7395907136618715e-002,
          -1.1037123826710056e-002, 2.4118572605578335e-002,
          5.0640193683695652e-003, 1.0172997246232799e-003,
          2.3340473376075646e-004, 9.5146172740578330e-004,
          1.1237224664438697e-002, 1.6087788669264032e-002,
          -1.1766805529915079e-002, 3.5506197828701768e-003,
          -1.5794708424752410e-003, -2.1150948547729006e-003,
          1.6067055576556862e-002, -1.3005845028986157e-002,
          1.4817785764334974e-002, -9.1352139520528650e-003,
          6.7372286024717891e-003, -1.1921247941971797e-002,
          3.6825044484015512e-003, -2.4034774814368848e-002,
          -1.0552799739242037e-002, -1.6901466941637985e-003,
          8.2592812025064945e-003, -1.8911945246259887e-002,
          -1.0843886350851213e-002, -1.1294371236163194e-002,
          1.1662704343905771e-002, 2.3534512420486365e-002,
          -5.5100329853654904e-003, -1.3660300213284068e-002,
          -4.6221038921550172e-003, -1.0879176142884710e-002,
          1.1122787466888950e-002, -1.0798487333774713e-002,
          -5.3746021640777150e-003, -1.0720860818529142e-002,
          -1.3274781334200137e-002, 3.9705791038470621e-003,
          -1.0410139142142021e-002, 1.8477467351654578e-002,
          -6.6666404751642531e-003, 5.3530292334648660e-003,
          -1.4798720788705437e-003, -1.1771892809772614e-002,
          1.3544850077525128e-002, 1.5726454024328086e-002,
          -7.2248832068266041e-003, -1.8816820617264845e-002,
          -1.6455885762294833e-001, 1.5315064454697559e-002,
          2.8040289046055093e-002, 1.0069573876391567e-002,
          -1.0363631083799537e-002, -3.3587994553975066e-003,
          1.7527740617873003e-002, -3.0102665713717169e-002,
          9.7732449604851189e-003, -1.0986752175611684e-002,
          4.2511524940817245e-002, 9.0633906356428293e-003,
          -9.2899909844674014e-003, 5.6247940048987310e-004,
          -2.1819043270895721e-003, -1.3047702460308600e-003,
          2.2046689037734332e-003, 2.6272345628864546e-004,
          4.0810403265909723e-003, -1.5977605506806501e-003,
          -1.0238224955142303e-002, 1.9157484681023905e-003,
          1.7759315581610660e-002, -1.2509535644554107e-002,
          4.7760872535063514e-003, -8.5098269147790215e-003,
          5.9779711044965975e-003, 1.7690470412085026e-002,
          -2.3500600193246891e-002, 3.3977215386622996e-002,
          1.4910921998335389e-002, -1.4495682856244774e-002,
          1.9877822768512094e-002, 8.6187696492440007e-003,
          3.3316713595592656e-002, 3.5065291672092499e-004,
          -1.0250201427654461e-002, 4.0074326215304096e-003,
          -8.9686868531637827e-003, 4.2414271980305493e-003,
          -1.3091636776422654e-002, -1.2537102390971566e-002,
          -2.2799072280339512e-002, 6.9239433306734089e-003,
          -1.4804235053297947e-002, -1.5650795101198121e-002,
          -1.3129327542299002e-002, 6.0029501072277076e-003,
          5.5488578123444657e-004, -1.1689914313208646e-002,
          -1.1789410123358190e-002, 1.4570218786154839e-002,
          -1.2178316545490625e-002, 3.1714132561025170e-002,
          2.8228389933259448e-003, 2.8372487222326371e-003,
          3.3263872911687160e-003, -2.9187788837593642e-003,
          5.3242831830289071e-003, 1.8195855912289827e-002,
          7.0912557033149884e-004, 1.4515572971004401e-002,
          -5.3259367953873149e-003, -1.0276229922798663e-002,
          1.1516263775140362e-002, -1.2957848996640018e-002,
          1.5897232058351335e-002, -7.9876189240451756e-003,
          3.2790574369936615e-003, -2.7990691041483253e-003,
          7.0163857768373314e-003, -2.9085445243558546e-002,
          -3.8127304037520208e-003, 3.6431888636493577e-003,
          1.8373603163343927e-002, -2.0273630774820226e-002,
          -1.8946227284727571e-002, -1.6480315272283753e-002,
          -1.1806217621069871e-003, 3.0358703315519531e-002,
          -1.5631379781180261e-003, -2.1358710501835482e-002,
          -5.1108039993787817e-003, -2.0066005511018854e-002,
          4.9976299530554548e-003, -1.1467724905446652e-002,
          -1.1676758216077731e-002, -1.6974563883626566e-002,
          -1.4512714753347016e-002, -2.6769378383401043e-003,
          -1.3147335552410360e-002, 1.6422664271253287e-002,
          -6.4356115870590255e-003, 6.5260635795732691e-003,
          8.4711491298630707e-003, -4.8557044686986491e-003,
          1.5489027221744413e-002, 1.7838344165386256e-002,
          -1.4639310872969775e-002, -3.1463448133596965e-002,
          -1.2705494934033770e-001, 4.0032362887702311e-003,
          2.1397084031425698e-003, 1.3816286688781036e-002,
          -1.7445131644334613e-002, -8.5255469254955068e-003,
          2.6959350983025192e-002, -3.6372218007812623e-002,
          9.8360135714126284e-003, -7.6748283197891776e-003,
          2.0297947738758454e-002, 5.3585158909373459e-003,
          -1.3064665062342464e-002, -2.2123448688166729e-003,
          -6.5892817357272643e-004, -8.3857227942178807e-003,
          3.8326383684227174e-003, 3.4910767472407810e-003,
          -1.0822432311155034e-002, -5.2097758383193079e-003,
          1.1413889354133411e-003, 6.0945826107747293e-005,
          2.3463657794739138e-002, 1.5351818706135086e-002,
          8.2278678398319191e-003, -5.5700932228341035e-003,
          1.8167564760590991e-003, 1.0246879937426621e-002,
          -1.5315950650382612e-002, 6.1735101623094655e-003,
          7.9141572288695568e-003, -9.6936252150424639e-003,
          6.8357315240600543e-003, 2.4228396863329306e-003,
          1.5758997029312851e-002, 4.1277838781192985e-004,
          -8.1254421138291944e-003, 1.4799470584897863e-002,
          -5.4104941813376073e-003, 2.6715731722439166e-003,
          -2.6621724840042446e-003, 4.4750301552807939e-003,
          -1.0091690973985667e-002, 1.3992686469103330e-002,
          -1.4343977430147783e-002, -8.7097220864701536e-003,
          1.2064125529864808e-002, 9.9630615328668020e-004,
          8.8703109403496534e-003, -4.1944013873910146e-003,
          -1.2747353674177574e-002, 3.7184382651818484e-003,
          -3.1647903503182443e-003, -1.2732585365992021e-003,
          -6.0583194045216171e-003, 2.6600498938543111e-003,
          -1.4528948817807275e-002, -3.9166204900464010e-003,
          2.2433527613053481e-002, 1.5619873261086360e-002,
          5.2222468547688588e-003, 9.5805878421460922e-003,
          -1.9837108152567515e-003, -8.8919636892668165e-003,
          -6.4648832205225180e-003, -3.1960004313500408e-003,
          2.4754374476835890e-003, -8.8925655876429129e-004,
          -1.2466896143476089e-003, 7.2467932126635669e-003,
          2.6076628730700192e-003, -2.7296993901813844e-002,
          -7.4524409701455258e-003, 4.3473689905348849e-003,
          1.7199601109902388e-002, -1.9004860130422446e-002,
          -2.9534562416365467e-002, -1.3450924233896421e-002,
          3.9224335410064059e-004, 1.7394244494153391e-002,
          2.9726442936501012e-003, 6.2293636872187974e-003,
          -7.6501847861649213e-003, 8.2137288590821787e-003,
          6.7592656401704952e-003, -1.6176330687819960e-002,
          -2.6272273488214069e-003, -1.2950601765862962e-002,
          9.1234743337111450e-003, -9.7913944992247884e-003,
          -9.9440707664900894e-003, 1.5567573816307651e-002,
          -6.5987262860146547e-003, 7.5283401002075867e-003,
          6.9818555304895016e-003, -4.3477600073206944e-003,
          1.4128226166237408e-002, -3.2876409673178683e-003,
          -1.8889308919418167e-002, -5.2575550346750490e-003,
          8.0265384826594330e-002, 1.4670556541585410e-002,
          1.3861710895450279e-002, 8.7290950924440690e-003,
          9.6349360273431332e-003, -1.7894772179190138e-002,
          2.8198371613865496e-002, -4.6778151982439696e-002,
          9.9589840389763366e-003, -9.5078298955019198e-003,
          1.9365392614063202e-002, 4.3912945579676300e-003,
          -1.2707047305494603e-002, -3.2932024780830378e-003,
          -5.6591887811024786e-003, 4.2111866312557894e-003,
          1.1666577294247543e-004, 5.5537706318023738e-003,
          -9.1262198837171425e-003, -5.3257000132580822e-003,
          -7.2027987896742616e-003, 6.2950315621922897e-003,
          5.3953514039033375e-003, 5.5737499901504671e-003,
          8.8859473773384434e-003, 9.7805953841315005e-003,
          4.8786435217308558e-003, -4.6617647375402022e-003,
          -1.4160363234057378e-002, -2.5810782545062504e-003,
          1.7330319588156444e-003, -6.9517495441339273e-003,
          7.0983865803524752e-003, -3.0835383696161474e-003,
          1.1009979276998903e-002, 6.4111503623224110e-004,
          -1.1522663683710741e-002, 1.3347250356363374e-002,
          -4.7306015321851302e-003, -3.4803860209258228e-004,
          -5.5783872772808742e-003, 9.3108568154806823e-003,
          -1.7701740967028610e-002, 4.5887544428597649e-003,
          -1.1678662795886823e-002, 1.4680911280144059e-003,
          2.6280221180917922e-003, 1.0115782524234044e-003,
          2.6526770787649520e-003, -7.1582577667567591e-003,
          -1.0450828035933949e-002, 5.2734801146798336e-005,
          8.4606067003888917e-003, -7.4231267515800445e-004,
          -1.7263432554322004e-002, 2.4127393110823232e-003,
          -8.7527347202846859e-003, 3.4638366436286509e-003,
          1.5929439878828066e-002, 1.5062701664565629e-002,
          -9.8713708006639266e-003, -1.2303508550999940e-002,
          4.7711188721623211e-003, -6.6479702556875870e-003,
          -6.1908739975159686e-003, -1.3022108249738771e-002,
          -2.5686702215017851e-003, 7.9594796480855039e-003,
          6.0359104999248795e-003, 1.0081378592013685e-002,
          2.8328232679748792e-003, -3.2415207029308585e-002,
          -6.3200314173324848e-003, 1.7664448593800153e-003,
          1.5297230722260096e-002, -1.9309058301422755e-002,
          -2.8583357395085367e-002, 5.2866421680350236e-003,
          -1.9158984239744106e-003, 6.9210551499385431e-003,
          3.0780953750197387e-003, 9.1206568320820330e-003,
          -1.2215079782233879e-002, 1.9356848426455523e-002,
          8.1442223022386278e-003, -7.2569897967951283e-003,
          8.5323177117942607e-004, -7.3805105856443115e-003,
          1.1103457847979075e-002, 5.3088444224110663e-003,
          -1.0619076930869366e-002, 8.4670017739115686e-003,
          9.4691261732611550e-003, -7.9927704154475910e-003,
          4.1294824731084008e-003, -5.3235091465183024e-003,
          1.4508815301025831e-002, -3.4180358925398023e-003,
          -8.4039892177976763e-003, 1.6693516012561454e-002,
          6.4456690957640839e-002, 7.4651609450295088e-003,
          1.9063819842786690e-002, 1.1205749385378990e-002,
          1.4357337584310353e-002, -1.2349603660410977e-002,
          1.3409930631402586e-003, -7.2282636496527894e-003,
          1.5594644036655371e-002, 9.4821296707788992e-004,
          1.6455216403071980e-002, -4.1290896147672430e-003,
          -6.5631017635212540e-003, -9.0253993911678116e-003,
          -7.2104323558268280e-004, 1.6777236985918707e-003,
          1.8086367567467457e-003, 6.7793835669768716e-003,
          -8.0295198898015993e-003, -9.0402124776828626e-003,
          8.1444791564778928e-003, -3.6162396298283109e-003,
          9.8841749530828027e-003, 3.7768068744455613e-003,
          1.4095205508766456e-002, -2.6394154704726062e-003,
          1.6856286056711769e-002, -1.2207557308446047e-004,
          -4.0093817215445535e-003, -1.4107953121463877e-002,
          5.4170093519076562e-003, -9.4264691424792834e-003,
          1.1150700634949063e-002, -5.8485453087821580e-003,
          2.6978734630553742e-002, -3.5559706424185462e-003,
          -2.1564204887840055e-003, 1.2200283708901938e-002,
          -4.6497325245220510e-003, 2.7867988681225873e-003,
          -7.6882820826243686e-003, -7.3062511441103050e-004,
          -1.9538806696439946e-002, 1.0460988184954124e-002,
          5.4883862480285877e-003, 4.1212911501650627e-003,
          1.2549273944046629e-002, 8.6669889001092047e-003,
          2.4810187908622907e-002, -3.2957524468743642e-003,
          -4.9747408723189940e-003, 2.4172272623803753e-003,
          1.2404930395510320e-003, -2.6999521364138132e-003,
          -2.1288827993205514e-002, -5.6388856026764957e-004,
          -9.7204086746790295e-003, -4.8837387631816577e-004,
          1.8208649685429075e-002, 1.4476494690939508e-002,
          -8.4028631155754225e-003, 1.1078809040315984e-003,
          -1.1548817820138883e-002, -1.0414215798707832e-003,
          -2.5044085510761617e-004, 7.3655559772220361e-003,
          8.2394712632353367e-004, 8.5829592252101319e-005,
          5.6801459057599932e-003, 3.6941056027775814e-005,
          5.0059367701442738e-003, 2.9935319844945612e-003,
          -7.8746794043318691e-003, 2.8389352966888002e-003,
          1.1871611279538017e-002, -1.6003744239902921e-002,
          -2.3120453913795254e-002, -7.5519749572864848e-003,
          1.5713073863123388e-003, 1.1300858267496567e-002,
          8.2954378295667808e-003, 1.6997565007980928e-002,
          -1.2215881788429394e-002, 6.2786324771559130e-003,
          1.8115920544870687e-002, -3.6379360340284880e-003,
          -5.1570136244974089e-003, -8.9752587162567777e-003,
          5.6929355155341827e-003, 2.3679290077487617e-003,
          3.9016873870773142e-003, 8.8606004022826288e-003,
          2.7294653660508471e-003, 1.6035542860320345e-003,
          -5.2765197203302394e-003, 1.0524822574401480e-003,
          8.9316597978108762e-003, -4.9915486997887861e-003,
          -1.4137727471510951e-002, -3.5996151756237586e-003,
          8.9136943812845967e-002, -1.8471161262643716e-002,
          -9.5599471896320593e-003, 9.7082148748619812e-003,
          -1.8827609477857997e-004, -1.2243006581939038e-002,
          -2.0189942698003297e-003, -1.2101104882591760e-002,
          1.2113052890943247e-002, 1.4824247214112261e-003,
          2.2822546548781693e-002, 3.4307630704434656e-003,
          -2.8315816793509090e-004, -3.4597445084724532e-003,
          -8.5645455486364763e-003, 2.4994909458180116e-003,
          -3.1016379792387500e-003, -7.3429759286695968e-003,
          -5.5622129645924150e-003, -8.4187165626093980e-003,
          1.2465679962889734e-002, 1.1824314027997359e-003,
          8.3275545877074929e-003, 9.4345725986172083e-003,
          1.0829084663275814e-002, 3.2874759608276139e-003,
          1.3578485180761586e-002, 1.8234757232278000e-002,
          2.7955076913647814e-003, -7.2876421447366207e-003,
          1.1438079153261440e-002, -6.3953089578420051e-003,
          -9.7363114410953088e-003, -1.9946416266386825e-003,
          1.4645175192933839e-002, -3.8783540954975891e-004,
          -9.0725203687116122e-003, 1.9691040033988541e-002,
          -9.3605785128912464e-003, -2.7011519702550301e-003,
          -3.3814930100195336e-003, 4.0817641306878832e-004,
          1.4260730339190354e-002, 9.4641358337404398e-003,
          -1.3180571288925429e-002, -5.4007540591925387e-003,
          1.4691917794254833e-002, 9.9471001411205948e-003,
          2.5404990915203002e-002, 1.9375348683393447e-002,
          -1.9372393821689253e-002, 7.1223620047409005e-003,
          -6.9753534730018565e-003, -3.3473959655198242e-003,
          -1.8366077953567431e-002, 1.1432883217977597e-002,
          -1.3291874361726406e-002, 1.0099876135997422e-002,
          2.0947758201540167e-002, 8.8134836535643975e-003,
          -1.1568196652450390e-004, -3.9184037972381444e-003,
          -8.1951659213769651e-003, 6.1934902226952063e-003,
          -7.7939048080570613e-003, 1.6749427295524384e-002,
          1.8570303834126245e-003, 4.4615295713951071e-003,
          1.2667249653624009e-004, 1.3842873067086175e-002,
          3.6719665623659243e-003, 8.8283560264095923e-003,
          -2.5514125571271421e-002, 1.2340712835681977e-002,
          3.0871596301622069e-002, -9.1769756190953466e-003,
          -2.1959786093488077e-002, -6.8790729779454312e-003,
          -8.2244105991901122e-003, 1.6526244719022934e-002,
          2.5575691534403446e-003, 3.1466669901683640e-002,
          1.0864916675673686e-002, 6.2885130664195260e-003,
          2.7982259995084240e-002, -1.0584048858127957e-003,
          -3.0493379758922234e-003, 2.3191631315126282e-004,
          5.8177074522346058e-003, -9.3648344229493898e-003,
          9.7445312402703193e-004, 9.9949626478183524e-003,
          7.7790858715774593e-004, -5.6300375950540037e-004,
          -8.2852466951816080e-003, -8.3763583873923114e-003,
          4.5069704650252430e-003, -5.9932172910133110e-003,
          -2.2661686459354867e-002, 1.3084381316327428e-003,
          8.9313343272675538e-002, -2.1754260791049286e-002,
          -8.6170760801674625e-003, 1.3144817580557536e-002,
          -1.7431429769899473e-003, -1.2749001934825784e-002,
          1.9337244549995553e-004, -1.2732191986536372e-002,
          5.5586088288664230e-003, -4.4093526868855919e-003,
          2.0705549746386234e-002, 3.7313439138453976e-003,
          -2.7528347910157503e-003, -1.7159167641453454e-003,
          -4.2032347722769422e-003, 5.1227843930496579e-003,
          -4.0125762681458306e-004, 3.3936034261552744e-005,
          -8.2148059424946417e-003, -6.9747736421940871e-003,
          1.5165242036802591e-002, 1.2686142317132913e-003,
          9.7473724232945355e-003, 8.7565610543383042e-003,
          9.3091037348263829e-003, 3.3930282508414476e-004,
          1.3654443204879064e-002, 1.9777312412424194e-002,
          1.1070132256510723e-003, -3.1859895294249199e-003,
          1.3168828122222519e-002, -6.3648134416094066e-003,
          -8.5887421286074250e-003, -1.8832480582591619e-003,
          1.4381003119098873e-002, 2.4440488117430342e-003,
          -1.5609317134577439e-002, 1.8282553472322050e-002,
          -1.0527199039336726e-002, -3.7349743753685772e-003,
          -4.0103330767882967e-003, 3.7045387342127989e-003,
          1.4980008763990891e-002, 7.4686298879815252e-003,
          -1.2962882548287556e-002, -5.0074894059396120e-004,
          1.4697973477833090e-002, 8.0922538763543456e-003,
          1.1640574834553644e-002, 1.4287315236816884e-002,
          -1.7878717578480328e-002, 5.8270702186655745e-003,
          -6.5488616915635040e-003, -5.1360985753347048e-003,
          -1.8350309844848044e-002, 1.2613278341148094e-002,
          -1.5815487393852121e-002, 5.8532942471386526e-003,
          2.1158043826609598e-002, 9.1860374870180728e-003,
          8.0767984102415452e-003, -9.8132506675858988e-003,
          -9.0361715545795515e-003, 7.2288660005317210e-003,
          -1.0393220434208612e-003, 1.7776607089581262e-002,
          4.1961297614700891e-003, 7.4230177514131605e-003,
          -4.3638907091726048e-003, 1.0965814923869803e-002,
          5.8244799843422956e-003, 8.6466547030262797e-003,
          -2.4756728951943488e-002, 5.3731432491623101e-003,
          2.8676997596416488e-002, -1.2656688753659035e-002,
          -2.5053694218157813e-002, -2.8228245283401423e-003,
          -1.0452720610770672e-002, 1.0107993898622198e-002,
          -3.5556667881771610e-003, 3.6182344551655470e-002,
          1.1695301199660363e-002, 8.7515955440222986e-003,
          2.1166570914891276e-002, -2.3730627744422248e-003,
          -2.5138494769220899e-005, -1.2073392594061415e-003,
          9.0534668484354708e-003, -8.7738057304980622e-003,
          -6.0287300139532374e-003, 1.3336006643763047e-002,
          2.2409008052207101e-003, -2.6799108259876053e-003,
          -9.3584650179950341e-003, -5.1863489478210217e-003,
          8.1197565187913594e-003, -4.6475855272168510e-003,
          -1.2090451283257475e-002, 3.7301955059939761e-004,
          5.6773869035931047e-002, -1.1873118252742993e-002,
          3.4779655179727033e-003, 6.7379599841616566e-003,
          5.5976751768175128e-003, -7.8946672793725366e-003,
          4.3751126570798068e-003, -1.8937593785646214e-002,
          1.1876568427434821e-002, 4.3864354389050834e-003,
          1.3594305142016481e-002, 4.8662148624486112e-004,
          -5.0257485481617938e-003, -6.5472611806454447e-004,
          -1.2022309278396009e-002, 1.4010302747324375e-003,
          -1.4309876882774527e-003, 4.6915950164428018e-003,
          -7.2846285310419782e-003, -5.6162598203948607e-003,
          1.0057874248918723e-003, 3.7338880482476410e-003,
          6.4302445687754450e-003, 9.6209750882010649e-003,
          5.9220746830537041e-003, 4.9185406442026946e-003,
          8.4719437213719752e-003, 1.3843874661937854e-002,
          3.6265372036544266e-003, -4.0349699582094573e-003,
          3.7237757583562991e-003, 1.5898025540468993e-003,
          -1.3308871950647066e-002, 2.8658846799117228e-003,
          1.4413205759973451e-002, -1.3446755738454220e-003,
          -1.3146144317960533e-002, 1.0578621042215876e-002,
          -4.4622309879496069e-003, -6.7622038812729251e-004,
          -6.8922992197355355e-003, 5.8928654723269900e-004,
          2.1866869100560476e-003, 5.2872787471509594e-003,
          -7.0482748922547165e-003, -1.0590302882016579e-003,
          1.3988658039139446e-002, 5.2103846050367371e-003,
          9.1887696481685582e-003, 5.9608257974671074e-003,
          -2.1655040814095960e-003, -4.2667917315747849e-003,
          -2.5524649720228563e-003, -4.3903075972571894e-003,
          -1.2617830677531720e-002, -1.5465719491457056e-004,
          -1.6565851155795720e-002, 1.1456438759367020e-002,
          1.8543421614572876e-002, 1.7361989323207150e-003,
          9.9284603906634721e-003, -9.6470676922787817e-003,
          -5.6935274575839780e-003, 6.1845475181071139e-003,
          6.7205869071929256e-003, -4.7511398964305970e-003,
          -3.9016015821985292e-003, 8.2277515690205374e-003,
          7.1908675544346871e-004, 1.4046717476916295e-002,
          6.4114206066705100e-003, -4.5820568909331096e-003,
          -7.7224657263575231e-003, 1.4116509394818907e-003,
          1.5005556023110768e-002, -1.0995269864944359e-002,
          -1.9486954388609909e-002, 6.5575331698106915e-003,
          -4.0463541148601902e-003, 3.3838007492815784e-003,
          3.6333247064508039e-003, 3.2433863467354558e-002,
          3.1986274128924718e-003, 7.7027158669265555e-003,
          2.0768838572088499e-002, -2.8044501595442133e-003,
          -1.1279883324211469e-003, 4.8505771133621114e-003,
          6.1859187966602901e-003, 1.3491540679191757e-003,
          -9.3197890715816366e-003, 1.3683931998126947e-002,
          1.4900402687317853e-003, -5.6226516889836577e-003,
          -8.7465000630006565e-004, -6.7168836960237290e-003,
          1.0925698099488538e-002, -4.5698403071884885e-003,
          -1.4226876996977795e-002, 3.0253234858424244e-003,
          5.6063133189338539e-002, -1.1623214657679461e-002,
          2.8140693170210524e-003, 3.4316885836258950e-003,
          6.2681998441724935e-003, -8.7266554088227376e-003,
          5.1204185716618470e-003, -1.6553912305552528e-002,
          9.7060007587896763e-003, 2.7737872598663162e-003,
          1.2045412354717728e-002, -3.9456604181939599e-004,
          -3.7109939212976117e-003, -1.6157393312063262e-003,
          -9.7859251413178021e-003, 4.1436327712873868e-003,
          -3.1457954786194542e-003, 4.0555031839792297e-003,
          -4.3567510666484297e-003, -3.2540948687969067e-003,
          -8.1879854044534562e-004, 7.4743817803471578e-004,
          8.3346563989738880e-003, 9.2562718776088120e-003,
          5.6758276767715646e-003, 5.2239529635617959e-003,
